svm_type c_svc
kernel_type rbf
gamma 0.33333333333333331
nr_class 4
total_sv 1483
rho -0.36474486008848533 -0.22756197469790221 -0.12333334024000815 0.1521829497598485 0.27935214000520231 0.11361921316644263
label 1 4 2 3
nr_sv 537 169 322 455
SV
0.13042670499172049 0.16105659017682214 0.1846493026292948 1:-75.370968 2:-59.160305 3:-80.384615 
0.093726167447781186 0.1162719754097996 0.13065566199417067 1:-73.411765 2:-44.238095 3:-79.601423 
0.52487306962089586 0.63826444954861783 0.72412199109964326 1:-65 2:-51.454545 3:-84 
0.30586572157045511 0.37314522057589899 0.42334003524799974 1:-69.959184 2:-44.5 3:-73.741935 
0.29859357498907363 0.3620674106447932 0.40958684164724007 1:-65.018868 2:-44.361538 3:-78.575221 
0.9814660646489578 0 0 1:-76.086957 2:-62.352941 3:-79.416667 
0.012125623881641925 0.015669163803988983 0.01527562327836875 1:-68.350877 2:-48.834197 3:-76.694915 
0.054746872065531194 0.070717760687633913 0.051602653731838463 1:-77.426357 2:-56.603175 3:-81.151386 
0.15214565711586076 0.18536944323550555 0.21253630533296902 1:-68.666667 2:-49.272727 3:-76 
0.61683201829307099 0.75016998245097843 0.85147254489288571 1:-78 2:-60 3:-66 
0.37858496066569475 0.46023255038186445 0.52264033923001452 1:-67.213115 2:-41.246187 3:-79.357724 
0.023106741973296534 0.03555347214212138 0.038324058282331562 1:-72.627219 2:-57.661017 3:-69.819672 
0.060085389583266514 0.073845936735406487 0.085390712521495563 1:-71 2:-58.571429 3:-70 
0.15351320349955203 0.18499495832651838 0.21025172771787534 1:-79.833333 2:-54.341463 3:-79.857143 
0.36144923963274678 0.43811266831593032 0.49781694309778235 1:-70.62069 2:-56.642857 3:-70.571429 
0.15948238446370341 0.19264693813729689 0.22127124841516382 1:-73.330739 2:-48.528369 3:-77.170018 
0.16992080284926392 0.20525623361437548 0.23285399534403467 1:-79.098039 2:-56.641975 3:-77.333333 
0.35743710411635593 0.43529375266964204 0.49464554624673418 1:-64.992908 2:-45.352273 3:-68.54878 
0.082886928569644913 0.10360750943478349 0.1168205167503812 1:-80.333333 2:-59.75 3:-80.666667 
0.41956906927219484 0.5096699157867961 0.57947842333134902 1:-75.754011 2:-45.214485 3:-81.245614 
0.42286319952727769 0.4593242694080264 0.52173758569141371 1:-77.491124 2:-60.116788 3:-76.090909 
0.21632985191314058 0.26709872977501103 0.30278767316673577 1:-67.714286 2:-48.555556 3:-73.066667 
0.33724718859192299 0.41035240770624948 0.46520509044530173 1:-67.428571 2:-56.028169 3:-73.833333 
0.10621101024854998 0.12838401456952794 0.14752864989035094 1:-67.127907 2:-51.091429 3:-71.792157 
0.37534533824556721 0.45607670574162212 0.51722267987237081 1:-72.037037 2:-45.2 3:-71.174603 
0.46513743113756029 0.56530031010778925 0.64200617895038692 1:-76.444444 2:-50.566667 3:-73.111111 
0.5133374602322921 0.62413425841360926 0.7081704456716057 1:-66 2:-50 
0.057204489813216478 0.066650430616819967 0.079138816717114174 1:-74 2:-51.716981 3:-77.043478 
0.15549195901525248 0.19478872661893118 0.21854875186997386 1:-70.827586 2:-53.769231 3:-80 
0.51605877137182588 0.62694038556460707 0.71138999083248433 1:-73.607477 2:-42.07362 3:-76.1843 
0.02041012076916902 0.02473333339064665 0.02891980334676306 1:-81.971014 2:-59.139073 3:-82.74552 
0.17502029473483657 0.22037191543930959 0.23490010769599307 1:-71.714286 2:-49.377778 3:-78.354839 
0.082931926188241537 0.095618121112255844 0.11361750965923555 1:-71.25 2:-51.272727 3:-80 
0.21909643299432938 0.26622432613776059 0.30190239783475775 1:-73.955556 2:-52.363636 3:-86 
0.35555545150281914 0.43264204266225076 0.49098069116220033 1:-78.444444 2:-49.217391 3:-78 
0.056326035089151433 0.060542032534913783 0.082445782213171406 1:-71.6 2:-50 3:-78.666667 
0.10612945474811791 0.12974317253837131 0.14557652441303295 1:-67 2:-46.37037 3:-82 
0.14331733733419472 0.17258617932768747 0.18785925448691093 1:-68.5 2:-54.909091 3:-76 
0.11441512083808632 0.13906966505580232 0.15536008743300653 1:-69.834395 2:-49.362187 3:-79.839357 
0.32996890296372083 0.40001140427858128 0.45522164444428076 1:-72 2:-54.888889 3:-83 
0.081960733681944592 0.10149026332560149 0.11413547711693982 1:-69.75 2:-51.50495 3:-74.385965 
0.054407113150112575 0.069169003297627041 0.07949408525530334 1:-80.176471 2:-60.666667 3:-83.037975 
0.35519799808506775 0.43126986664058853 0.48980020773973171 1:-69.806452 2:-49.466667 3:-74 
0.1739940453995712 0.20902559631834416 0.23638349070650228 1:-66.273973 2:-48.445783 3:-76.828571 
0.06065415186413857 0.07275654780874094 0.081898598980919307 1:-65.247525 2:-45.092784 3:-70.519685 
0.27634430157565537 0.33648355361065002 0.38180141948106522 1:-74.111111 2:-52.319149 3:-82.823529 
0.12722338542159717 0.15376968194780083 0.17543782987559028 1:-77.8 2:-56.014599 3:-76.786885 
0.5751011635408122 0.69906958685426179 0.79335455156502532 1:-75 2:-31.935484 3:-77.333333 
0.53428833205296666 0.65008715153392893 4 2:-64 3:-80.666667 
0.15721566153167241 0.19053273336785392 0.2168982362081269 1:-68.710801 2:-50.270423 3:-80.213873 
0.054425629470066711 0.051802039475874091 0.07225247501455595 1:-73.461538 2:-55.189189 3:-79.142857 
0.12094249257848867 0.14258873303715175 0.18851159299155931 1:-77.685714 2:-57 3:-80.956522 
0.155556333617552 0.18960384394573671 0.21418832029906021 1:-81.619048 2:-55.585859 3:-80.734694 
0.38988312476585735 0.47462289883322062 0.53847966780588907 1:-76.262626 2:-54.309859 3:-73.623116 
0.35849692303585545 0.43689123121627527 0.4952113615716664 1:-75.333333 2:-54.153846 3:-84 
0.24795774931854611 0.32731269988634237 0.37177871098442927 1:-80.40404 2:-61.681818 3:-80.333333 
0.2486645974361881 0.30284485091809521 0.34436230125973261 1:-70.266667 2:-49.617647 3:-81.060533 
0.28300053425823474 0.34414578595583023 0.39087824543762589 1:-71.6 2:-52.280936 3:-81.350993 
0.0013477308359703508 0 0 1:-73.175439 2:-53.159159 3:-82.178218 
0.12305463586395894 0.14133339470265177 0.16980663471613186 1:-70.051948 2:-52.773333 3:-77.946237 
0.35083667167351329 0.42861439167836879 0.48595555051209316 1:-75.333333 2:-48.014599 3:-73.144981 
0.54684856979425311 0.66562271943689333 0.75555807244672835 1:-67.813953 2:-39.88764 3:-69.434211 
0.089176823786272771 0.11224370779122918 0.12084189133873231 1:-74.690909 2:-58.857143 3:-78.692308 
0.16714814112715087 0.20493104414091462 0.23171239441393404 1:-83 2:-60.142857 3:-82 
0.26370505956249218 0.31930978244179958 0.36397203959869023 1:-68.796748 2:-55.768519 3:-78.223404 
0.3370289839674751 0.41142789030706112 0.46611508894092357 1:-74.436975 2:-52.534392 3:-75.465438 
0.33690989534047577 0.41750515055071613 0.46099790457351514 1:-74.666667 2:-47.833333 3:-79.2 
0.33348580686200069 0.40600781927761376 0.46094354004121751 1:-77.555556 2:-51.8125 3:-75.777778 
0.22397594204539523 0.26913428360176683 0.30577036071237573 1:-72 2:-56 3:-66.666667 
0.2924350353942039 0.35670721164411284 0.40490724870903755 1:-73 2:-58 
0.0113786342242676 0.016618923552431403 0.012072280558867931 1:-66.571429 2:-50 3:-75 
0.265653466823151 0.32223870305676661 0.36546038885561682 1:-68.506173 2:-50.54321 3:-72.03482 
0.28703589081213499 0.27234691312023634 0.30895227275978288 1:-78.95 2:-61.254545 3:-80.065574 
0.18554506803824167 0.22628183270911231 0.25632653255192367 1:-67.386861 2:-52.154185 3:-78.017241 
0.24211678267433562 0.29784832036797193 0.33293511305975637 1:-72.903846 2:-56.505495 3:-78.644628 
0.092262765945574809 0.1111485338193224 0.12614706147419685 1:-82 2:-58.761905 3:-81.076923 
0.13306586103752657 0.15552957767592085 0.17578675998117305 1:-67.235294 2:-48.846154 3:-75 
0.053179527993918639 0.065912159189276995 0.07501869620341696 1:-80.333333 2:-57.142857 3:-82.363636 
0.13847468451161524 0.16735929161402643 0.19000486481078668 1:-68.461538 2:-50.727273 3:-77.28 
0.38811040939624514 0.47250504757579331 0.53521960744547858 1:-72 2:-44.695652 3:-76 
0.51013355499232182 0.62049365966526537 0.7038674092004803 1:-76.8 2:-56.843373 
0.062127221540966206 0.075411918202147502 0.086352447292241438 1:-81.08642 2:-58.038462 3:-82.03125 
0.59696830003299572 0.72557043003533472 0.82386662823558776 1:-70.102564 2:-49.90625 3:-88 
0.11841256113102659 0.14594005644454777 0.16054019116162324 1:-72.698413 2:-47.222222 3:-78.5 
0.33809998215297427 0.41088367817338783 0.46596468308293254 1:-65.8125 2:-48.73224 3:-68.94382 
0.35698228778821961 0.43355658422314941 0.49224467244645076 1:-72.606061 2:-55.336323 3:-72.544815 
0.5150277602900204 0.62610463373496439 0.71057539541407722 1:-64 2:-49.407407 
0.13439103629454183 0.16434975043877176 0.18749603317622301 1:-73.9 2:-57.518519 3:-82.111111 
0.10642177278670424 0.12936935753033413 0.14705914396638411 1:-84.222222 2:-57.642173 3:-83.122807 
0.52293288055717368 0.63591116013013926 0.72161947634967483 1:-76 2:-66.235294 3:-84 
0.39990857475661912 0.48959245658077127 0.55569496568092214 1:-75.8 2:-60.9375 3:-83 
0.1296702284315856 0.20073957085056843 0.22570959002460694 1:-74.461538 2:-60.885714 3:-80 
0.17479024781117075 0.21236009825844421 0.24122687729110859 1:-73.2 2:-47.754386 3:-81.688 
0.35833365486532048 0.43559512755219942 0.49427068719951939 1:-69.173554 2:-44.447917 3:-83.067616 
0.1343969157300399 0.16393803625625586 0.18669292840853119 1:-69.097345 2:-48.982456 3:-77.895288 
0.38027842557158309 0.46227693203777259 0.52522334489003875 1:-80.928571 2:-55.761905 3:-84.4 
0.023976486775217208 0.031097649677984115 0.029074825925832097 1:-69.425532 2:-52.573737 3:-77.04186 
0.50584662517498324 0.61423150882037736 0.69797451806324518 1:-74.198198 2:-42.496042 3:-83.345455 
0.37703461481384792 0.45892769605271372 0.52032881520872676 1:-75.692308 2:-56.515152 3:-84 
0.44407292094465717 0.53984201846859936 0.61297621774081545 1:-84.761905 2:-59.748387 3:-82.71173 
0.29486443303296284 0.35967979820608076 0.40847324032745641 1:-64.833333 2:-55.262357 3:-75.914894 
0.059262851320407081 0.076950505823195334 0.087623748330754397 1:-72.019231 2:-55.994624 3:-68.349442 
0.39066312427065231 0.47407533323691647 0.53795070944304357 1:-68.434783 2:-46.336957 3:-71.890909 
0.53061036937831041 0.64502223757745913 0.73202132744947734 1:-74 2:-60.666667 
0.058395067440229195 0.077380515217783441 0.079197117276514711 1:-71.4 2:-51.105263 3:-79.333333 
0.4730280792147028 0.57524292852402981 0.65243913169466916 1:-63.333333 2:-56.4 3:-67.333333 
0.49125328114817579 0.59641414390875847 0.67594397654928851 1:-65.090909 2:-41.28 3:-68.25 
0.25722253594952788 0.31399024313001855 0.35553817556798234 1:-74.222222 2:-42.171206 3:-81.449057 
0.038173039201386087 0.060616670204277981 0.070733097262754882 1:-73.672727 2:-59.38 3:-69.404145 
0.28517413431796484 0.34539655084086945 0.39218568633827061 1:-66.582996 2:-46.144201 3:-69.036789 
0.090495380739132894 0.11142597639088311 0.12689288475733879 1:-68.673684 2:-46.855513 3:-80.177165 
0.16965921659132965 0.20659858277591164 0.23466220667269508 1:-71.963964 2:-46.104046 3:-84.015748 
0.48686698041751003 0.59200023464341467 0.67175362920862036 1:-71.081081 2:-52.653992 3:-83.936508 
0.074395702863827615 0.096145541528446329 0.10805809696256279 1:-76.283465 2:-56.376812 3:-78.338983 
0.14254184504788342 0.17380754107278817 0.19713997321352308 1:-68.888889 2:-54.444444 3:-78 
0.16419293826889381 0.19996382865448459 0.22759470929161194 1:-78.780488 2:-51.696203 3:-79.12 
0.017330103887138574 0.026040845874010246 0.025538076672526184 1:-73.265487 2:-50.275132 3:-76.236559 
0.39326027550027887 0.47873457169416367 0.54332860376235725 2:-60 3:-72.285714 
0.045955235926022048 0.042038488054247501 0.046206647598182105 1:-66.0125 2:-47.482759 3:-74.910082 
0.30275121722645315 0.368610229639106 0.41822441539444805 1:-78.615385 2:-57.245033 3:-83.136364 
0.53915013931767264 0.65555982700687543 0.7434949662914514 1:-72.12 2:-60.070175 3:-83.795276 
0.26465960693616442 0.32170084603426119 0.36712199689789393 1:-66.390805 2:-52.431818 3:-77.043478 
0.059100915662750143 0.080208390822354814 0.093291036985566997 1:-66.77551 2:-48 3:-75.608696 
0.005718517538337518 0.0074496694971373234 0.0080039809262810423 1:-68.118694 2:-49.060729 3:-80.877828 
0.56853903094293079 0.69131939904921191 0.78512916968980806 1:-80.666667 2:-55.310345 
0.15998378516140399 0.19673094561620902 0.22339548416551197 1:-65.9375 2:-47.19171 3:-69.974194 
0.19309310446099159 0.23517918848161093 0.26699197862668966 1:-69.2 2:-55.964286 3:-66.692308 
0.023790215947044578 0.05439065207952145 0.046209700219674653 1:-75.166667 2:-56.341176 3:-79.542857 
0.63519128374741018 0.77257606033175208 0.87658805499460357 1:-64.857143 2:-62.106195 3:-71.625731 
0.016534036341300778 0.025971076671192909 0.027349191679142775 1:-70.016129 2:-52.816817 3:-77.035144 
0 0.054554850179783225 0.060996306536052591 1:-77.389313 2:-61.195122 3:-80.514706 
0.31672711118204322 0.38594999776375882 0.43729306423064063 1:-68.521739 2:-54.555556 3:-69.540984 
0.40928176532355059 0.49777992408597455 0.5663744083606701 1:-64.073171 2:-44.700787 3:-71.355049 
0.26016319637661656 0.31646241764394689 0.35967876243597963 1:-77.788889 2:-54.314754 3:-79.571765 
0.43963477848560062 0.53496187213410051 0.60677287544079461 1:-66 2:-51.375 3:-68.487395 
0.27229398613125022 0.33195800386091462 0.37596907508744215 1:-67.111111 2:-58 3:-75 
0.57848410996034327 0.70387130247941698 0.79878046119319457 1:-64.181818 2:-38.285714 3:-66 
0.32661630092409499 0.39709311714450196 0.45034344554986111 1:-77.824561 2:-54.159509 3:-75.442623 
0.73279705149949326 1.1841982762093941 0.86526036343061308 3:-78 
0.19561364644131721 0.24136303702395126 0.27292715482754826 1:-75.789474 2:-57.696203 3:-81.384615 
0.62514963948593405 0.75942135094658325 0.86235958151489023 1:-80.153846 2:-57.4 3:-67 
0.18072202346830304 0.22158506855342805 0.25019420250462282 1:-70.434783 2:-50 3:-76 
0.039247005013432833 0.039577139270328521 0.049513943893608942 1:-71.555556 2:-54.142857 3:-80.108108 
0.41295189506859348 0.50313291248191372 0.570689160888328 1:-74.857143 2:-53.5 3:-70 
0.2150300880643744 0.26147549776383849 0.29611132393100242 1:-67.261905 2:-45.457627 3:-80.011299 
0.24957399877037481 0.30249399724067894 0.34612826951284559 1:-72.25 2:-46.363636 3:-68.666667 
0.58548458034691764 0.71239893314360792 0.8084549091993648 1:-77.972222 2:-42.830189 3:-81.832402 
0.042707601344621392 0.048022094709963534 0.055064441825878649 1:-79.142857 2:-58 3:-80 
0.04842465615089557 0.052136495356926688 0.068033056613427151 1:-72.05 2:-53.822785 3:-78.482759 
0.43024972075258744 0.5230512259430502 0.59389084683217708 2:-48 3:-74.666667 
0.2800979573569341 0.33958697416260708 0.38516197082566966 1:-75.431655 2:-49.514706 3:-81.41791 
0.3325513223211074 0.3931482977268867 0.44417194499894086 1:-73.315789 2:-60.785479 3:-78.793651 
0.39958770399278787 0.48632506116974172 0.55169353829213363 1:-70.640449 2:-51.653846 3:-72.199288 
0.35393428381359981 0.43021896571826784 0.48825991255937534 1:-79.913043 2:-52.017699 3:-80.392857 
0.11904013056590976 0.12976993876256473 0.14707964725080921 1:-72.5 2:-57 3:-68.8 
0.14252116779000346 0.1756510837373946 0.19958672117365814 1:-75.411765 2:-50.666667 3:-81.4 
0.10126565151732964 0.124132318195432 0.14034730753601191 1:-81.474747 2:-52.679389 3:-78.586319 
0.41211632336560211 0.50119170318935391 0.56884060081221111 1:-67.364431 2:-38.05298 3:-77.44385 
0.18685599319421109 0.22620500216782824 0.25543435456739866 1:-67 2:-50.5 3:-85.726316 
0.58782771941931489 0.71468030905629421 0.81155936276792739 1:-66.06 2:-57.046512 3:-80.551282 
0.29609016300640822 0.35955775845776033 0.40814529196815619 1:-66.576087 2:-44.744186 3:-77.444444 
0.062720115351730804 0.076366594632620036 0.086588902611090424 1:-68.611111 2:-51.035714 3:-78.615385 
0.20335756958167592 0.25265779982878905 0.28427929306845268 1:-72.8 2:-54.964286 3:-80.484848 
0.13792971264700396 0.16680674233281004 0.19137110493899728 1:-69.176471 2:-51.809524 3:-75.963636 
0.41733397525431076 0.50735072646074686 0.575909944513739 1:-71.092593 2:-30.425532 3:-81.980769 
0.62832274210127048 0.764048213602746 0.86716159801142623 1:-67.2 2:-56.774194 3:-87 
0.088823917442757236 0.10836009118088226 0.1229870593908482 1:-70 2:-52 3:-79.5 
0.45693358531034228 0.55596005692258543 0.63109995262557983 1:-73.567568 2:-47.128205 3:-68.3125 
0.13947282495200145 0.16988635279336081 0.19334830729267524 1:-73.482759 2:-56.869565 3:-74.833333 
0.16437290856887651 0.17933529442059415 0.20359369105451014 1:-73.336585 2:-59.786408 3:-71.69 
0.0028279553592845483 0.0011259800748991064 0 1:-75.259259 2:-52.916667 3:-79.608696 
0.35461152842486676 0.445236921802382 0.50446890884003648 1:-78.375 2:-58.392405 3:-76.109589 
0.012114188885938957 0 0 1:-80.3 2:-58.166667 3:-79.666667 
0.61383768421634421 0.74651521380703867 0.84697309016275912 1:-69.848276 2:-37.160839 3:-79.164912 
0.33637449490931881 0.41049895774506606 0.46511334366385498 1:-67.75 2:-58 3:-78.333333 
0.076830049482015869 0.10081905679820022 0.10535913705575066 1:-74.09697 2:-52.837209 3:-77.475285 
0.53108758141209733 0.64579980117831881 0.73295656077047233 1:-66.5 2:-53.625 3:-83.454545 
0.098151452472269043 0.11298080288116906 0.13523853016643242 1:-74.615385 2:-53.432432 3:-77.253846 
0.079389522954480832 0.095971442648896371 0.10977237909552016 1:-78 2:-56.6 3:-78.41791 
0.39859191239458402 0.48478733285207659 0.55076438321560861 1:-74.125 2:-56 3:-67.5 
0.021599070833352236 0.026909777299594081 0.031958848005812432 1:-64.831169 2:-41.362832 3:-69.072727 
0.24899720776506953 0.30220224761374026 0.34290494787260944 2:-59.75 3:-72 
0.27194871061739023 0.32748243211495137 0.3705791375440593 1:-74.571429 2:-58.666667 3:-69.733333 
0.63692142578904409 0.77248205388663038 0.87672313712991756 1:-86 3:-86 
0.12569801186890472 0.15297821570602171 0.17557945538000017 1:-71.944444 2:-45.945946 3:-77.916667 
0.37254621653776887 0.44496493442975255 0.50461196088554838 1:-81.714286 2:-61.647059 3:-81.333333 
0.05985170718348614 0.075841644738731201 0.066871821235634551 1:-67.68 2:-50.928571 3:-74.717949 
0.22341270320254633 0.26932034810944988 0.30602127992010292 1:-80.909091 2:-56.6 3:-78.777778 
0.071016811989384865 0.085723475878593275 0.097064351139831473 1:-80 2:-56.923077 
0.58203038297425969 0.70828468515579146 0.80334265146359984 1:-75.5 2:-34 3:-79 
0.059575987335172109 0.070078725896081412 0.078907542357568958 1:-68.84472 2:-45.558574 3:-81.552 
0.1487381204206851 0.18238245524209626 0.20800439606645688 1:-65.851852 2:-45.182741 3:-78.728745 
0.093557413743634604 0.1320393374688173 0.14480014665041027 1:-75.491525 2:-55.691057 3:-80 
0.35845080492509496 0.43616826505435019 0.49461774156878158 1:-65.738462 2:-50.041379 3:-77.728682 
0.42534157311913262 0.51799469148183808 0.5873034253721694 1:-73.666667 2:-45.626168 3:-73.663212 
0.30220692724057591 0.37762416244262054 0.4294467846535695 1:-73.230769 2:-59.09589 3:-74 
0.29836634640053017 0.36200711010740177 0.41116018260942372 1:-68 2:-46.166667 3:-76 
0.44265464938951415 0.53807679644108564 0.61158004943375521 1:-73.284211 2:-58.203125 3:-84.323144 
0.11350499198566169 0.13848895500924269 0.1542832974345888 1:-72.764706 2:-46.139194 3:-69.129167 
0.5131264993987863 0.62428216599205388 0.70859741384053099 1:-82.54 2:-61.751938 3:-84.124646 
0.16187295105512184 0.19935247130124639 0.22419787243006653 1:-71.666667 2:-51.636364 3:-77.272727 
0.23610944166525502 0.26073784642036102 0.29688580438038198 1:-77.058824 2:-60.62069 3:-81.636364 
0.16871119478500496 0.16378085223780303 0.20508262526684518 1:-75.4375 2:-56.28125 3:-79.747126 
0.072016765786222722 0.088424082202450238 0.099763152613040695 1:-72.470588 2:-44.602649 3:-80.110092 
0.071490073760085648 0.091167152116090638 0.095138094353101055 1:-71.333333 2:-53.152542 3:-78.08 
0.4653236839893361 0.56531596413614527 0.64253592723012132 1:-66.114754 2:-44.989583 3:-82.022222 
0.058814502935744653 0.067311035690979182 0.089820986690955132 1:-71.142857 2:-47.969697 3:-78.646789 
0.25996162746034956 0.31441596565654895 0.35397592064414773 1:-67.149206 2:-55.223529 3:-77.174242 
0.53467345724005555 0.64972394395160249 4 2:-62 3:-81.666667 
0.022298185619518164 0.028996534056228217 0.032764581861321355 1:-72 2:-59.125 3:-80 
0.016296930025882589 0.021061163294651044 0.029723047491454792 1:-74.166667 2:-59.975904 3:-79.047619 
0.43681886263630887 0.53117201780750545 0.60251315897074254 1:-85.533333 2:-56.171053 3:-83.603563 
0.66363833660745664 0.57135696303852723 0.64815661872555896 1:-76.875 2:-68 3:-76.7 
0.17228929380067584 0.20885781171199547 0.23589874930545626 1:-67.415978 2:-47.929712 3:-79.92 
0.23211217373266521 0.2729301714216999 0.30835456240744474 1:-73.830508 2:-58.64574 3:-80.728972 
0.057807580520355735 0.070525777962256189 0.079025709425853116 1:-77.472 2:-51.37931 3:-79.634146 
4 4 2.4250267893598205 3:-82 
0.43108052211426295 0.52426261550403541 0.59508604707506563 1:-63.783133 2:-49.065217 3:-69.356522 
0.60321140342872681 0.73368001394740501 0.83263917885789285 1:-66.090909 2:-35.965517 3:-76.077922 
0.48691104074389874 0.63839159062763517 0.72437616375913716 1:-76.307692 2:-66.1 3:-75.856716 
0.67422486714823449 0.61126945190870463 0.69398163469405305 1:-66 2:-84 3:-74 
0.02287306722830873 0.027454547843204957 0.031927296932449986 1:-73.457143 2:-49.014778 3:-81.952381 
0.52743060131837483 0.61159952358756309 0.69378369155841002 1:-64 2:-84 3:-74 
0 0.12903013452707152 0.1468025927773508 1:-76.227273 2:-61.777778 3:-80 
0.29713420318860229 0.36170192712385096 0.41108762970734308 1:-67.2 2:-60.447761 3:-76.070845 
0.46836309580941449 0.56815270335997503 0.64524593987022372 1:-68.914286 2:-43.122905 3:-74.030488 
0.31869927455706593 0.38696899159313924 0.43754309748809322 1:-67.855072 2:-56.52027 3:-83.164912 
0.29886836895314134 0.36313424791150622 0.41146148508166874 1:-72.768559 2:-49.983229 3:-72.271845 
0.60344727024160538 0.73396499955682259 0.83293747390282014 1:-70 2:-56 
0.58796886647204549 0.71936162201673448 0.81621379729475785 1:-70.024096 2:-63.040816 3:-80.212766 
0.38426680803441532 0.46765464064779494 0.53026676797226302 1:-71.680851 2:-53.152709 3:-75.052055 
0.1131163323744504 0.13959381377798094 0.15639080175369807 1:-73.924051 2:-50.904459 3:-77.34104 
0.33394084822237158 0.40276251314555311 0.4560405990667995 1:-77.862069 2:-62.307692 3:-84.142857 
0.28847648895277656 0.35007161377357587 0.39792458267758007 1:-66.928571 2:-57.809524 3:-74 
0.55212922048869317 0.67160521001238549 0.76196905460389208 1:-70.857143 3:-80.8 
0.011198464487231097 0.016438636848771969 0.018881691937826801 1:-71.384615 2:-44.148148 3:-70.25974 
0 0.18367373322612865 0.20885712341143584 1:-77.5 2:-62 3:-79.6 
0.18625168702935202 0.22492636774598729 0.25196204347981022 1:-67.8 2:-50.351648 3:-82 
0.1954975739606318 0.23937257868956191 0.27056280331191029 1:-79 2:-55.906977 3:-79.4 
0.24144265884268032 0.29278558455659137 0.33137461416849873 1:-78 2:-54.571429 3:-83 
0.29107776164682131 0.35477882352587553 0.40249930519117844 1:-83.236364 2:-56.16 3:-81.915858 
0.4060302351235881 0.49346956088015892 0.55975285975242983 1:-69.5 2:-55 3:-66.636364 
0.36504571358908011 0.44375924999452387 0.50375456872108026 1:-82.483871 2:-54.367816 3:-84.013158 
0.072323394675582436 0.086410700273035101 0.097420811606185931 1:-73.272727 2:-54.853659 3:-68.756614 
0.41696224670568771 0.5067414904824159 0.57477301431217764 1:-69.285024 2:-41.423823 3:-79.41844 
0.20323044347157945 0.24574055057640656 0.27823603247805956 1:-74 2:-55.285714 3:-82.222222 
0.4126745273367568 0.50313248213027406 0.57041454048178664 1:-65.261905 2:-50.308108 3:-72.184143 
0.090301302552759505 0.11340593397756134 0.1253419953445401 1:-71.222222 2:-55.238095 3:-79.238095 
0.078489762795064102 0.096653928488946911 0.11974957794577751 1:-80.222222 2:-59.333333 3:-84 
0.35639229150838092 0.43273457922210218 0.49214431148686871 1:-65.860465 2:-47.027237 3:-80.840764 
0.32120952181063933 0.39049566998895607 0.44281011104758128 1:-70.893617 2:-46.506667 3:-83.14094 
0.16668970443469766 0.20353874484205781 0.23120122663727627 1:-76.333333 2:-54.384615 3:-77 
0.17141164053468097 0.20911566996165248 0.23957673608181701 1:-66.8 2:-50.444444 3:-82.75 
0.44662117392558909 0.54650886631829498 0.62066788051292843 1:-64.666667 2:-47.333333 3:-76 
0 0 0.00041791257499373025 1:-68.236364 2:-50 3:-74.477987 
0.36612152881890625 0.44578999349500009 0.5057811113493178 1:-67.286385 2:-39.668016 3:-77.694444 
0.30787313075424083 0.37356644901092834 0.4246714850262972 1:-83.98 2:-52.475556 3:-81.700337 
0.77080449592396127 0.49593699529689789 0.56306464302936909 1:-76.315789 2:-62.606061 3:-77.882353 
0 0.071923090649168214 0.080229292774480002 1:-75.578947 2:-63.714286 3:-80.4 
0.39437910979554147 0.49172600010329431 3.7154533660579494 1:-68 
0.0062382950333541212 0.0065140154794016934 0.0075821477073817287 1:-81.416667 2:-56.521073 3:-82.597015 
0.47708347961026287 0.57875675169234819 0.6584156725955671 1:-83 2:-55.6 3:-78 
0.2493022805297144 0.3044268922191401 0.34553701430298311 1:-84.413793 2:-53.60479 3:-81.202658 
0.56494379242046011 0.68675301392928911 0.77924260787861876 1:-73.534247 2:-34.585526 3:-75.481081 
0.22526329713885029 0.27254388136607088 0.30866141331829866 1:-65.714286 2:-54.615385 3:-75 
0.62801464903984716 0.76315387679634628 0.86622384472414948 2:-56.923077 3:-70 
0.096735835902311149 0.12411482698490375 0.14427789687826426 1:-74.347826 2:-57.352381 3:-78.177778 
0.101455030271441 0.12213105101250063 0.13832396447391287 1:-69.393939 2:-53.28 3:-80.26087 
0.18764125814418603 0.19566917224278046 0.22138403642310656 1:-72.787402 2:-60.070175 3:-69.928571 
0.25797763919523864 0.31233767249722477 0.3539121874543848 1:-72.717949 2:-55.691057 3:-74.657778 
0.29930779589340101 0.3651249327786093 0.41231700968525248 1:-67.16129 2:-51.866667 3:-72.363636 
0.2900600611392854 0.3534090427579244 0.40030913069505075 1:-70.666667 2:-57.02439 3:-77 
0.52327692219904676 0.63659880116751344 0.72175173751820176 1:-73.833333 3:-78.5 
0.072087076365619313 0.28146692943525792 0.3180284393324741 1:-76.461538 2:-60.780488 3:-77.4 
0.27443143450873492 0.3325449720064706 0.37738541640365486 1:-74.571429 2:-58 
0.14685926770136495 0.17691042892775866 0.20149607093417582 1:-69.333333 2:-48.37037 3:-77.050847 
0.012897141899922518 0.023072413536610575 0.027801355210670932 1:-65.818182 2:-47.961905 3:-73.952 
0.2993015150637498 0.36454515786049035 0.4137421947438833 1:-73.454545 2:-54.568421 3:-84.666667 
0.016215172017185094 0.031014357440337002 0.037448704812489089 1:-74.833333 2:-53.085202 3:-80.082192 
0.55092758007164133 0.66569038549018955 0.75576518646257329 1:-72.171429 2:-62.631579 3:-67.333333 
0.29318013762407091 0.34993444295279058 0.39776531103112228 1:-78.454545 2:-59 3:-78.153846 
0.48375818135122811 0.58811714156633277 0.66702839008619286 1:-71.333333 2:-58.666667 
0.28443832308859252 0.43262107940420153 0.49139646357950667 1:-77 2:-63.870968 3:-81.784091 
0.41060752731218336 0.4997685826609049 0.5666476940477152 1:-72 2:-47.904762 3:-71.692308 
0.036481005082735836 0.046693489475978102 0.050677548303521204 1:-72.090909 2:-50.144928 3:-80.769231 
0.12323923721355326 0.14950841031928702 0.16916565152951457 1:-80.588235 2:-55.92 3:-82.210526 
0.021486860324104729 0.025498358694273297 0.032597395991304345 1:-66 2:-50 3:-76 
0.28692372025588697 0.63290991190507029 0.71842795928190661 1:-73.6 2:-64.615385 3:-79 
0.23550870603358007 0.28504922098662328 0.32797306459760828 1:-69.461538 2:-54.072072 3:-75.916667 
0.31953263333907617 0.3871040541991293 0.44042344295702462 1:-75.098039 2:-42.857143 3:-80.482759 
0.14382277650121425 0.17509778027977149 0.19859901407972694 1:-82.759494 2:-57.933333 3:-82.375559 
0.29509446617898455 0.35869717042768995 0.40663568146595663 1:-78.883333 2:-51.364929 3:-76.838488 
0.051172776029123831 0.061984273705598385 0.071226088428241435 1:-80.206897 2:-51.506173 3:-77.456954 
0.25817720247471987 0.31418951631735348 0.35580508515776432 1:-72.1 2:-58.666667 3:-78.5 
0.15533111020808166 0.18492233559567528 0.20883083197055649 1:-77.142857 2:-59.333333 3:-80.266667 
0.20977261923670945 0.2532874440859933 0.28908406966932482 1:-81 2:-54 3:-77.666667 
0.49215386357644592 0.60052281726847201 0.68125286856295719 1:-79.333333 2:-66.823529 3:-79.5 
0.46163298842954814 0.55214295899421673 0.62634506877661378 1:-77.967742 2:-64.54717 3:-84 
0.63582881966647431 0.77201788607487054 0.96230512316693473 1:-64 2:-62.444444 3:-80 
0.341856927290354 0.41529787070157775 0.47197500801552927 1:-78 2:-49.1 3:-79.444444 
0.51600548045666528 0.6269879784003366 0.71163421408528538 1:-63.793103 2:-51.025641 3:-67.428571 
0.23614615028998345 0.28663805066097803 0.32501302055225678 1:-68.606061 2:-47.025 3:-77.977011 
0.43195871145481579 0.52466110573494407 0.59561311755885415 1:-80.064516 2:-65.285714 3:-78.571429 
0.27326713668691799 0.33277708239771997 0.37826774243675859 1:-67.740196 2:-52.958678 3:-75.14808 
0.22438068065907738 0.26709503535634582 0.3026287232902703 1:-66.428571 2:-48.101351 3:-73 
0.15062626820693512 0.18486161713899146 0.20973618180953268 1:-66.666667 2:-45.692308 3:-72.4375 
0.20004487438551316 0.2432751344134659 0.27507047135999885 1:-73.657658 2:-45.207547 3:-78.312057 
0.090521219489168608 0.11188606190784725 0.1281669701528112 1:-80.5 2:-57 3:-81 
0.15372883204218518 0.19026137419647271 0.21128474116830673 1:-73.777778 2:-50 3:-78.571429 
0.27055016684667438 0.32737238169230287 0.37408993912619909 1:-76.24 2:-52.346041 3:-78.917526 
0.60765661565744855 0.73895465748227529 0.83856464244677575 1:-69.923077 2:-44.1 3:-63.416667 
0.46009980800845773 0.55890681221774174 0.6345552035965083 1:-71.04 2:-58.682353 3:-76.055249 
0.091400772554215248 0.11086243071095432 0.12582244359050757 1:-82.736842 2:-60.150943 3:-83.857143 
0.38228077076676747 0.46463978702988934 0.52782916209142361 1:-75.5 2:-55.142857 3:-70.545455 
0.52606978400637294 0.63972178038361549 0.72576575181987624 1:-65.89313 2:-53.333333 3:-67.102041 
0.038018018104495593 0.040889251411207368 0.055471642700216213 1:-74.820513 2:-48.709957 3:-79.253846 
0.0061106522301713709 0.0044433524080563017 0.0057136998268300029 1:-74.536082 2:-46.9967 3:-73.344262 
0.47814992264974482 0.57788941720717568 0.65615633703724519 1:-72.4 2:-58.666667 3:-67 
0.42228083246168102 0.51323986670366051 0.58214766396481643 1:-66.213333 2:-39.287554 3:-71.111111 
0.16801865314946254 0.20467527849184605 0.23255034937540925 1:-73.105058 2:-51.345 3:-82.429134 
0.63529495427680338 4 0.87670794936563934 3:-68 
0.010418302734279222 0.020238592880712145 0.022278432838372553 1:-66.426667 2:-47.304636 3:-74.326996 
0.088914451214307633 0.20263118553437803 0.23061975588748551 1:-72.75 2:-61 3:-71.894737 
0.21919880486987961 0.26528736569879013 0.30145991259826305 1:-71.526316 2:-48.666667 3:-81.571429 
0.5609028149513956 0.68239735988339989 0.77444373977858505 1:-76.5 2:-46.132075 3:-72.086957 
0.26769301587211713 0.32649807402006997 0.36972092796120698 1:-78.59375 2:-55.666667 3:-83.969388 
0.44619166380924791 0.54256294778228786 0.61911867612904503 1:-67.967213 2:-57.834983 3:-83.54321 
0.0018170618085578728 0.0017235806009367458 0.0028614207851763891 1:-68 2:-56 3:-74.857143 
0.27944974935111044 0.33871165902035261 0.38474327244316792 1:-67.555556 2:-58.923077 3:-77.692308 
0.032039454654037708 0.038173014548554783 0.044159469357253268 1:-73.666667 2:-56.823529 3:-70 
0.23976899323770196 0.29119927820999592 0.33051186169663233 1:-75.222222 2:-50 3:-72 
0.19642311501203044 0.23706938147298098 0.2593335137311315 1:-80 2:-60.097561 3:-84.097561 
0.17297564849805289 0.20905350035822784 0.23671704032187735 1:-64.705882 2:-47.442623 3:-69.705263 
0.5181707024344725 0.63538485062930905 0.72079254487577438 1:-79.5 2:-62.896552 3:-77.8 
0.26460223409553618 0.31951444202333074 0.36426595733050571 1:-72.742857 2:-43.515419 3:-79.914614 
0.45765893704902605 0.55776087642435734 0.63304880505594419 1:-78.105263 2:-53.647059 3:-68.727273 
0.150648119470666 0.17848618741549555 0.20220112507838886 1:-72.972376 2:-58.295775 3:-73.920904 
0.41165911935612093 0.50094579478081014 0.56879053944925584 1:-68.5 2:-54.217391 3:-81.653631 
0.23111399812348837 0.27989387529022491 0.31823784149772827 1:-72.446429 2:-54.318367 3:-76.769231 
0.61822336228517638 0.75227259738170515 0.85343752198099332 2:-50.705882 
0.47804187026238754 0.58170671316730982 0.66042985604535198 1:-74 2:-50.435897 3:-70.214286 
0.37393338710439816 0.4472260731874772 0.50795533252925207 1:-71.142857 2:-60.625 3:-68.5 
0.84195188370209917 0.65228981105355532 0.74006747151730257 1:-72.571429 2:-63 3:-71.6 
0.083621858919494294 0.10949560182844556 0.12409006140469925 1:-72.814815 2:-58 3:-80.7 
0.24810882812743434 0.30168366810094555 0.34199349074315877 1:-65.784946 2:-40.774194 3:-72.791304 
3.4808586849750864 0.10092275151665712 0.11561420277257173 1:-75.333333 2:-63.8125 3:-79.5 
0.35622695684575478 0.43229174195718179 0.49098333596231186 1:-71.5 2:-50.222222 3:-69.391304 
0.11332059899089925 0.13731287251155688 0.15603154819269699 1:-82.3 2:-56.941176 3:-80.833333 
0.0097596235938703282 0.011227282517629621 0.013907275430858611 1:-72.307692 2:-49.643939 3:-83.080169 
0.39442324779251337 0.47990724542868424 0.54432177036212126 1:-72.363636 2:-54.421053 3:-67.333333 
0.1460638964314058 0.17613007309906567 0.19909214643281406 1:-74.981132 2:-57.518519 3:-82.821429 
0.037521578007918444 0.036983308436369135 0.039985446293815334 1:-74.538462 2:-53.625 3:-80 
0.42943839780630938 0.52239757132920095 0.59263002535884746 1:-72.782609 2:-47.702703 3:-84.695122 
0.23681425070264703 0.28916649630772623 0.32824587735101657 1:-68.960784 2:-45.505376 3:-70.005797 
0.14401915578945743 0.17638680954735347 0.20127863199361323 1:-66.986667 2:-49.837838 3:-85.744681 
0.06870033906606314 0.083281999783103827 0.092450762479239362 1:-73.969697 2:-50.977778 3:-80.923077 
0.12897548060748942 0.15360217924075326 0.16905162573441673 1:-79.028571 2:-57.818182 3:-81.166667 
0.52367659938296529 0.63652841057127985 0.72276545929334413 1:-66.363636 2:-58 3:-64.769231 
0.11018809674808008 0.14943791709635434 0.17161234724649149 1:-79.272727 2:-59.4 3:-80.695652 
0.5404251807053545 0.65700581594994667 0.74583765792515677 1:-64.996678 2:-40.082589 3:-74.702955 
0.48353749351711806 0.58809908624252361 0.6675186657905563 1:-83.809524 2:-58.380952 3:-85 
0.36032329554684817 0.43925855733623609 0.49743855999666564 1:-70 2:-58.736842 3:-70 
0.22442756185536544 0.27320202411650679 0.31128913086237892 1:-66.996466 2:-49.205937 3:-78.750943 
0.22532664621642612 0.2745390837054783 0.31166676178081659 1:-76 2:-58.454545 
0.028942470291401155 0.030649721820386409 0.040103546595203106 1:-73 2:-50.4 3:-77.666667 
2.2455724421388155 0.76660646421610379 0.87374865749032371 1:-72 
0.17359518649709532 0.20604311026535294 0.23272729635296358 1:-79.885057 2:-59.556075 3:-82.077834 
0.40384364061146805 0.49134500902582684 0.55750568308450088 1:-64.487395 2:-40.072727 3:-69.835616 
0.63514538492403183 0.77237083167403076 0.87670369650991442 2:-44.5 
0.053511171245771344 0.06686114995195952 0.074534441391597595 1:-71.96904 2:-53.98773 3:-82.204082 
0.63526368149680712 0.77197260013189961 0.87672990471657275 1:-76 2:-45.6 
3.2668799863997933 0.72493481649992519 0.82271597146130304 1:-78.857143 
0.55324439801314007 0.670972018204959 0.76174523905195601 1:-74.638298 2:-64 3:-84.25 
0.05041804683909 0.061923041162115208 0.069277799987187749 1:-72.806452 2:-48.748201 3:-82.720721 
0.30749998622606833 0.37223792601892758 0.42263859610222587 1:-70.6 2:-43.818182 3:-71.055556 
0.63159263236549124 0.76828445840389992 0.8720673947562988 1:-69.882353 2:-51.95 
0.44774962217802527 0.54288331707173509 0.61857111774718299 1:-72.941176 2:-48.09901 3:-88 
0.41177033956254827 0.50157689484854751 0.56852962895122605 1:-75.142857 2:-49.169591 3:-76.2 
0.20148811305030367 0.24649547839321262 0.27815182443804487 1:-71.112583 2:-44.265625 3:-79.870968 
0.11847464158358348 0.15978797024686975 0.18110009365383792 1:-80.333333 2:-58 3:-79.5 
0.18647803282938932 0.23142626467026234 0.258623331232124 1:-71.304878 2:-46.871166 3:-79.978723 
0.49750875482954637 0.60620626730429472 0.68781661497476843 1:-76.315789 2:-44.084112 3:-77.309524 
0.43021690386126843 0.52313270778793286 0.59354164651202979 2:-49.333333 3:-75.333333 
0.32026940839580198 0.37523080067601039 0.42696751085664719 1:-75.381443 2:-58.317618 3:-77.547718 
0.54123915563649794 0.65943205803219118 0.74826178877536109 1:-80.222222 2:-58.08 
0.37413533132251942 0.45542071226161801 0.51690065355605075 1:-77.534722 2:-52.039409 3:-81.294326 
0.12526944168984461 0.15056471927908674 0.16936751031819802 1:-64.571429 2:-49.166667 3:-75.5 
0.081897634728322857 0.099677004299974975 0.11223751153522343 1:-66.133333 2:-42.672727 3:-73.134021 
0.080060959003409315 0.098374543850110796 0.10193077625588881 1:-70.568966 2:-47.382812 3:-78.550459 
0.09685539322718506 0.1196002765805689 0.1519033884082209 1:-67.333333 2:-50.666667 3:-74.909091 
0.18300097830888643 0.22122214741301768 0.25181325911180241 1:-70 2:-58 3:-68.125 
0.18028148993866613 0.2203406920397635 0.247525621258227 1:-72.391534 2:-48.275862 3:-88 
0.6303162806795255 0.76687056138529508 0.86982058893344938 1:-71.012346 2:-34.353591 3:-81.908497 
0.015748317327371652 0.021104108803058221 0.025447720463552821 1:-69.809129 2:-47.578692 3:-79.261084 
0.15108448491230678 0.18257722162521361 0.20783251306925524 1:-73.4 2:-45.833333 3:-76.75 
0.57593757546636526 0.70044635724243165 0.79497661016728338 1:-71.064748 2:-33.937107 3:-76.026906 
0.14697640482499255 0.17864219494726524 0.20261687866908584 1:-83.721739 2:-56.095506 3:-83.889353 
0.15685183396609206 0.18663368472537803 0.21632270612632024 1:-73.553191 2:-51.390625 3:-79.882353 
0.021694970777050133 0.021296136984088297 0.033392680936107033 1:-74.133333 2:-47.213115 3:-78.787879 
0.63498162138990843 0.77230623655882036 0.87637610054747017 1:-68.4 3:-76 
0.10902787334176944 0.13016419154500233 0.14755069813718166 1:-75.5 2:-61 3:-82 
0.17326501801596692 0.21243962651403692 0.24073897047026091 1:-73.78022 2:-46.736842 3:-72.47619 
0.10904961439141474 0.13903288434958194 0.14944131307693531 1:-73.31746 2:-52.574359 3:-79.767313 
0.087428912494446231 0.10574524862110236 0.11946928441229965 1:-84.930233 2:-53.555556 3:-81.897196 
0.2480030668140536 0.2996301347855867 0.34052149231123741 1:-77.043478 2:-54 3:-68.711864 
0.35671004789368638 0.4333392015478636 0.49208199972205313 1:-72 3:-79 
0.10456476225850352 0.12964015210624838 0.14594764705226246 1:-69.777778 2:-51.5 3:-78.25 
0.42149645285317172 0.51252145928460002 0.58171324351214804 1:-74.222222 2:-51.569231 3:-86 
0.11925531580444895 0.14491137124450118 0.16381560182088437 1:-82.595745 2:-53.388889 3:-81.672131 
0.57732768517306843 0.70172479046840963 0.79664481285357835 1:-62.111111 2:-38.313725 3:-67.714286 
0.13057586953610906 0.13782117624673712 0.15882844895198217 1:-76.4 2:-59.444444 3:-78.758621 
0.048354462603632367 0.060542489137295021 0.069488085889889611 1:-73.820312 2:-55.270936 3:-75.13615 
0 0.00863070355856679 0.0096717003179841131 1:-72.402778 2:-57.139535 3:-68.059701 
0.49484662229985632 0.60236443194669076 0.68356889846083868 1:-64.613497 2:-52.744526 3:-74.363636 
0.49046807287578409 0.59454607644952473 0.67496174811229492 1:-75.333333 2:-58.941176 3:-68 
0.34062400897727924 0.41496248404930897 0.47016611117872176 1:-71.682927 2:-47.6 3:-76.5 
0.040464939040926344 0.043755175844577311 0.052375856191575643 1:-73.53125 2:-57.742857 3:-79.095238 
0.11825708921905459 0.1426773330593033 0.16186616320980587 1:-65.942197 2:-50.943894 3:-74.256781 
0.074307380848582433 0.32171973256125591 0.36529172338519411 1:-74 2:-62.923077 3:-80.4 
0.040565063096436066 0.045006099038315366 0.05124330308314335 1:-76.736842 2:-55.777778 3:-78 
0.28385076730726566 0.34503773660895515 0.39205158251689698 1:-72.666667 2:-43 3:-77.5 
0.63490482789229763 0.77224059804316059 0.87671710354630461 1:-71.9375 2:-50.14433 3:-64 
0.0076290560789122816 0.01528301690988311 0.016313053013672977 1:-72 2:-59.333333 3:-68.5 
4 0.72068908915877128 0.81826306662009107 1:-76 
0.31997030111309321 0.3890760207134949 0.44129670161714896 1:-69 2:-57.230769 3:-68.571429 
0.0062143711815490586 0.010520517769184775 0.019210984949903823 1:-67.854545 2:-55.114504 3:-76.3125 
0.21924907715726422 0.26560031108803955 0.30194793438389528 1:-75.583333 2:-55.752212 3:-74.6 
0.22576103278252879 0.27110889816633721 0.30761239696416182 1:-75.59447 2:-54.086957 3:-80.680473 
0.30271425308935607 0.3676328057653479 0.41844618489623348 1:-69.743902 2:-50.412371 3:-69.130435 
0.63038222179571213 0.76659169763320201 0.86995522534302816 1:-68.236111 2:-40.904412 3:-85.152941 
0.10634661813875323 0.13283145441229677 0.14960097127919644 1:-78.666667 2:-61.142857 3:-84 
0.40155554750522515 0.48827511096189413 0.55414208187102842 1:-71.211268 2:-46.655602 3:-73.912644 
0.18580498112762628 0.22763787725456514 0.25786811008058674 1:-76.666667 2:-56.666667 3:-77 
0.026451524281753576 0.027263382135597324 0.038170999394000718 1:-67.645161 2:-51 3:-74.413793 
0.42463265896885316 0.51668337104423367 0.5858823640230223 1:-70.333333 2:-29.25 3:-82.285714 
0.60508618698647598 0.73653084300635829 0.83559328267859045 1:-72 2:-56.857143 3:-64 
0.34313348789774545 0.41772571447691609 0.47443421015757464 1:-74.653846 2:-48.054795 3:-82.222222 
0.32404285157737467 0.39395394835088238 0.44642057335773622 1:-68 2:-52.4 3:-80 
0.33162664946215681 0.4027757101433595 0.45692097397609494 1:-69.490196 2:-47.029787 3:-68.849315 
0.43710830212316221 0.53187463876742747 0.60381048594650355 1:-85.548387 2:-53.785714 3:-83.963636 
0.090383637627197033 0.10802393918526206 0.12523040754625131 1:-72.333333 2:-52.42963 3:-78.287582 
0.2325647774778444 0.28246492285124108 0.3225416976909995 1:-69.423729 2:-45.434555 3:-78.596306 
0.30946011391838435 0.37590453986946604 0.42682039486517631 1:-68 2:-50.4 3:-85.714286 
0.37076991094272038 0.45127595323385278 0.51191197801483457 1:-80.15625 2:-55.2 3:-76.56 
0.36023290797903806 0.43749513540677848 0.49630379938928543 1:-66.294118 2:-42.804301 3:-76.158537 
0.40266361026133168 0.489410951817775 0.55559247616383534 1:-65.068493 2:-54.683673 3:-77.513846 
0.41670745457472358 0.50065127820303268 4 1:-66.666667 
0.33915529713395098 0.41014072043893629 0.46524084041314456 1:-64.285714 2:-49.111111 3:-74 
0.5817116727532895 0.70684156942513754 0.80210255704693345 1:-73.866667 2:-55.690962 3:-86.941799 
0.24878163308476678 0.34860031912348238 0.39500975781744119 1:-72.678571 2:-61.62623 3:-69.509852 
0.16931854804281651 0.20867199172055273 0.23739246916603252 1:-69.526316 2:-45.802817 3:-81.655914 
0.20091558628891434 0.2445496776375321 0.27679910835766658 1:-70.133333 2:-50.785714 3:-68.769231 
0.11362701302620262 0.13546255541053145 0.15447234906973442 1:-78 2:-53.478261 3:-77.6 
0.10707571880104087 0.12644090324649149 0.14424483519797296 1:-68 2:-47 3:-74 
0.15162794610566233 0.18177798383562765 0.20611866617427088 1:-75.578947 2:-52.137931 3:-81.416667 
0.42696627945889615 0.51870742784113166 0.58916388868556735 1:-69.76 2:-43.264516 3:-77.79845 
0.21490107133933017 0.26199649839339118 0.29809915030984152 1:-73.329341 2:-57.706806 3:-70.405714 
0.40482179695430132 0.49202279727081766 0.55821062012654599 1:-73.117904 2:-45.456265 3:-82.828829 
0.37432028818149476 0.45375184149879644 0.51488941755989126 1:-70.292683 2:-43.96347 3:-69.438596 
0.47651254202500126 0.57904530536574195 0.6578559702506338 1:-65.03125 2:-42.354978 3:-79.061644 
0.45571023555907947 0.55398854592330915 0.62845521420585793 1:-67.647059 2:-48.513761 3:-84.166667 
0.20755912925201403 0.25023442232055448 0.28842230211880449 1:-79.25 2:-61.333333 3:-84 
0.49964683859009185 0.60742767750175097 0.68933691553177412 1:-68.285714 2:-58.583333 3:-65.777778 
0.63526869421198873 0.77239153048727993 0.87673010022307318 2:-54 3:-84 
0.23169941129050789 0.28336817300157846 0.32198934244857347 1:-73.127273 2:-55.537037 3:-69.879518 
0.26483592064902101 0.32240324401541437 0.36671934152371 1:-81.862069 2:-53.566667 3:-80.192308 
0.21696002382898294 0.26259459760899673 0.29850925202163114 1:-81.666667 2:-58.541667 3:-79.182482 
0.040214364736581125 0.066327026139523293 0.058213816150892862 1:-73.194888 2:-54.4 3:-78.722222 
0.31420221288184891 0.38236572918959882 0.4339536006312798 1:-68.972973 2:-46.286604 3:-67.742972 
0.39678379366338612 0.48390034176861924 0.54816238370245018 1:-74.865801 2:-56.866521 3:-73.088496 
0.089455263330244297 0.11057961191160046 0.12762880986375813 1:-64.662069 2:-49.787234 3:-74.86875 
0.63496887175177519 0.77264801865841692 1.1221002031241201 1:-66 3:-84 
0.55349114022891099 0.67313019902212368 0.76436545029569136 1:-68.985915 2:-44.267717 3:-66.262911 
0.14208917264331292 0.17566289200566812 0.19834654886513495 1:-79 2:-53.727273 3:-77.714286 
0.13709458487624554 0.16559310251959572 0.18826878404377351 1:-74.724138 2:-54.761905 3:-78.193939 
0.44281366676983935 0.53841478970569012 0.61060917879659082 1:-81.405941 2:-51.485437 3:-77.870036 
0.46767315576503921 0.57307338701967814 0.6503621888183152 1:-70.723881 2:-59.70088 3:-79.64486 
0.11513129167794921 0.13931692070246343 0.15489100595639582 1:-66.405797 2:-51.1875 3:-75.897872 
0.26864403991520358 0.32578323323742758 0.36871715994854942 1:-74.39604 2:-55.912351 3:-76.391111 
0.43732288860821961 0.53221566635286521 0.60364332734456749 1:-72 2:-50 3:-84 
0.61899903831435976 0.75213179623882587 0.86777773247800682 2:-54 
0.62285720445268744 0.75732690334269015 0.85933333410193513 1:-80.989474 2:-56.728477 3:-87.666667 
0.47300376557378915 0.57501089455783716 0.65206275712166306 1:-70.421053 2:-42.841328 3:-82.705882 
0.24171781730372521 0.29407444114247783 0.33509713494183846 1:-67.576355 2:-48.318584 3:-81.844262 
0.33961717664804392 0.41283970642050483 0.46926156703765565 1:-65.873684 2:-42.322835 3:-72.604938 
0.59634299299992288 0.72512868711194833 0.82292555667371203 1:-83.894737 2:-53.642857 3:-86.635838 
0.046894139844698444 0.052492115425059944 0.06264700282461981 1:-70.318584 2:-51.896341 3:-76.512195 
0.10580529350426704 0.12438239692698796 0.14511264737834623 1:-71.590361 2:-45.681818 3:-79.737659 
0.066354105856725756 0.082642639864058468 0.091961744804970963 1:-82.454545 2:-55.142857 3:-77.636364 
0.30320775007069634 0.36852565636747298 0.41427209477550275 1:-81.157895 2:-58.458333 3:-83.969231 
0.66135525535499873 0.77248305041594356 0.87679980765362553 1:-67.529412 2:-70.444444 3:-72.666667 
0.32320992143341409 0.39360153198047776 0.44654335380405136 1:-65.5 2:-43.142857 3:-74.888889 
0.043495844615772876 0.054148001925825313 0.063875675124296427 1:-67.735849 2:-50.945205 3:-81.242038 
0.24867095356141614 0.30400482139424051 0.3429568075833736 1:-75 2:-46.428571 3:-77.004566 
0.54396078464141295 0.68974155419504901 0.7836736819670358 1:-76 2:-67.5 3:-79.2 
0.098539037773388294 0.11138049820839112 0.13701911386759638 1:-73.666667 2:-53.222222 3:-78.916667 
0.13644596789766894 0.15855033727267631 0.18832084354843195 1:-71.225806 2:-55.481153 3:-77.706362 
0.61669413893646219 0.74974321400178356 0.85079535742237367 1:-81.333333 2:-51.927835 3:-74.377049 
0.28757023630812401 0.35002514453840777 0.39654529189520843 1:-64.105263 2:-44.32 3:-69.785047 
0.35741179427162006 0.43515880841732868 0.49300168463105637 1:-71.66065 2:-57.051903 3:-81.636364 
0.28548041050983819 0.3482948803577518 0.39354193375689944 1:-76.262069 2:-49.959484 3:-78.669307 
0.17519779091856075 0.21146061074090935 0.24859369158563099 1:-76.978873 2:-55.905138 3:-81.980583 
0.044023015414580896 0.049071425947320405 0.056902074970510197 1:-72.039216 2:-57.125749 3:-80.458101 
0.45802733966481562 0.55789210118945121 0.63274079558627405 1:-83.292035 2:-58.875283 3:-79.454545 
0.10846472089756966 0.12802820683384664 0.14766330750254417 1:-74.25 2:-50.75 3:-76.043478 
0.41125910344125921 0.4993900366221794 0.5660456510174301 1:-66 2:-50.357724 3:-80.995671 
0.10481016980005803 0.12787333769145459 0.14522792911819549 1:-84.171123 2:-53.2358 3:-83.241058 
0.27780538738447103 0.33577051594832458 0.3823897380313146 1:-72 2:-50.709677 3:-75.364162 
0.26272700887562417 0.3193443191102685 0.36309813117786288 1:-69.333333 2:-52.4 3:-73.2 
0.37597637536923545 0.38841023949883313 0.44123999930829766 1:-72.424242 2:-61.904321 3:-80.224852 
0.21349319089584295 0.26034330666985428 0.29635414468557109 1:-79 2:-54 3:-82 
0.085186065536205127 0.10365675487573256 0.11554488132310821 1:-68.916201 2:-44.020367 3:-79.297071 
0.36167412813887639 0.43895372910208263 0.49911646853034503 1:-69.942029 2:-55.883333 3:-80.611111 
0.28019611331669869 0.33875220198737677 0.38584374648304742 1:-76.070175 2:-45.868132 3:-77.872832 
0.43871694659108179 0.33436479900449134 0.37973343099992624 1:-76.72 2:-64 3:-80.166667 
0.33437838359949612 0.4065577164699683 0.4621247650536352 1:-73.333333 2:-49.267735 3:-74.102564 
0.58858616629804594 0.71584767419928697 0.8125018194759257 1:-84.957447 2:-62.086022 3:-80.857143 
0.18597141818642066 0.22562168882262484 0.25609924876460827 1:-76.1875 2:-52.735294 3:-74.65 
0.29982580013252702 0.36435788326436025 0.41527257480759838 1:-68.96875 2:-43.470085 3:-80.769231 
0.29448082528710212 0.33182245408541716 0.37607923802291693 1:-73.58209 2:-60.285714 3:-72.727273 
0.062684987398160891 0.082542884309276199 0.086452362119194104 1:-70.645161 2:-55.212121 3:-77.538462 
0.0075715741010100261 0.0092282280202947709 0.010883728310485145 1:-81.253731 2:-60.267101 3:-82.345435 
0.31527366320503308 0.3827413056616778 0.43494790294374525 1:-69.230769 2:-54.347826 3:-69.928571 
0.15905795807508086 0.19321905389721622 0.22058940766703722 1:-72.574163 2:-49.556911 3:-80.077108 
0.40430968933392819 0.49154595118710848 0.55687871591095672 1:-68.359375 2:-60.836676 3:-76.062208 
0.23537131459524746 0.28659581465492523 0.32488939337387313 1:-80.733333 2:-53.965909 3:-81.922581 
0.40208815097482514 0.48876598972998553 0.55533143213238911 1:-64.9375 2:-56.243243 3:-66.89172 
0.20042619233729253 0.24551850911805992 0.27803780106341613 1:-68.144144 2:-45.869091 3:-74.785425 
0.17425581374931032 0.21208068942839875 0.23970451517786523 1:-75.935484 2:-44.186667 3:-82.031579 
0.10194440341560046 0.12497650125408725 0.14362151971238796 1:-74.342857 2:-53.782609 3:-81.573333 
0.12608136787645891 0.16188587428274076 0.17973369907311607 1:-77.448718 2:-58.075163 3:-79.722561 
0.46907041955129225 0.57037626726643298 0.64762352447373139 1:-69.552941 2:-56.612121 3:-74 
0.56766156099464227 0.68995604703673985 0.78301424698505206 1:-76.833333 2:-60.875 
0.36401254660358495 0.44076625586776086 0.50056987530917318 1:-65.882353 2:-45.6 3:-73.333333 
0.093437096003069237 0.11713436440431889 0.12915433878617552 1:-76 2:-53.555556 3:-78 
0.17186489578580136 0.20927655155266153 0.23724626464745777 1:-72.331606 2:-56.425121 3:-71.968204 
0.1519350122092932 0.18089957292925027 0.20652966524076896 1:-69.84 2:-47 3:-80.5 
-0.67253440549156174 0.56843957520156951 0.95104784871288173 1:-65.506024 2:-76.22291 3:-84 
-1.0451673960451469 4 3.0966119380067694 2:-76 
-0.6556574630357509 0.55296605793728282 0.61380877335701711 1:-69.701493 2:-75.737374 3:-74.142857 
-0.92344290901094228 0.780451184360763 0.75768265363893672 1:-70.619048 2:-73.343066 3:-83.950413 
-0.94308874160612399 0.7958659870874828 0.86189236617240583 1:-69.142857 2:-80 3:-78 
-0.23691537868311832 0.19922482233134833 0 1:-65.537255 2:-77.02 3:-84.5 
-1.1256639670713255 0.95060495621572216 1.0570630228811941 1:-76 2:-80 
-0.74070648483385748 0.62679304012862169 2.6086731614910503 1:-66.846154 2:-79.554404 3:-79.5 
-0.9537997744551987 0.80503144642959201 0.89405790178404754 1:-75.5 2:-82.2 3:-82 
-0.92007490651401092 0.77624600395492227 0.87833415101167545 1:-74 2:-78.909091 
-1.3648536664913893 1.1521771411684119 2.343890741348214 1:-64.847162 2:-67.175676 3:-81.111111 
-1.2161004368291382 1.0270311788046573 1.1476637878620559 1:-72.566667 2:-71.862745 3:-80.65896 
-1.0498687918832486 0.88463794768219495 0.99693942607970387 1:-66.736842 2:-72.508475 3:-78.470588 
-1.0666352572041995 0.90064392028148865 0.99997159393176827 1:-75.454545 2:-81.894737 3:-85.91453 
-0.94692036993741457 0.79957091074660236 1.336612087858722 1:-72 2:-82 
-0.25855622642563747 0.21632235153844778 0.23969845845413071 1:-76.315789 2:-81.478261 3:-70.125 
-0.19340030489896984 0.1631553548941912 0.65072850899204038 1:-64.145985 2:-77.160305 3:-83.071429 
-0.55534030914614541 0.46819307544040023 0.50780271817802036 1:-73 2:-79.891892 3:-78.38 
-0.88175221701449924 0.74407729553212387 0.84106418329310817 1:-73.272727 2:-78 3:-76 
-1.1863786330850568 1.0018926448109227 1.1227270480675424 1:-66 2:-79.25 3:-84.923077 
-1.2658191031128569 1.0693173334381689 1.1943580281160466 1:-71.220779 2:-74.5 
-1.0724342940949378 0.90635033732245107 1.002551242298765 1:-72.661417 2:-78.013333 3:-74 
-1.0518107284119762 0.8888711842705812 0.98686321489358664 1:-68.455172 2:-77.532609 3:-73.92 
-1.3356591010910455 1.1280582993997805 1.2526148538372976 1:-63.152542 2:-73.468468 3:-72 
-1.0058244751260133 0.8498152627808071 0.94343609527477534 1:-75 2:-74.960526 3:-74.47205 
-0.97668220989296817 0.82493431304310316 0.9192709616092104 1:-74.644231 2:-78.252427 3:-78.25 
-1.2784063785115749 1.0793603596321693 1.2240514724034328 1:-72 2:-84 3:-80 
-0.93453899243113947 0.78953650305651746 0.87613660584193997 1:-78.666667 2:-82.5 3:-84 
-1.2844907207205527 1.084960885238023 1.2043522872868802 1:-76.777778 2:-75.714286 3:-79 
-1.3387544262052036 4 4 2:-72.666667 
-0.61131735189369762 0.51457211348365228 0.43589705309361632 1:-71.75 2:-79.846154 
-1.1267602053727162 0.95075729603990722 1.0627034092427954 1:-70.4 2:-80 3:-76 
-1.3645140295728715 1.1516122390178796 4 1:-58 2:-74 
-0.3187918671913812 0.2691600693894588 1.2411011097246107 1:-68.25641 2:-74.02381 3:-84.842105 
-0.92630029356484334 0.78165557013460985 0.88033822123726302 1:-70 2:-79.25 3:-84.666667 
-0.014736649000835711 0 1.1487920048581561 2:-78 
-0.57659040680314311 0.48719825475654033 0.51778399454065083 1:-67.050847 2:-74.47191 3:-78 
-0.82749568837974852 4 0.8907232829607038 2:-82.857143 
-1.3646963632901508 1.1521179491404185 1.2798385368468148 1:-90 2:-83.8 
-1.2268187287338326 1.0356838861792192 1.4773529747238059 1:-68 2:-80 
-0.39654908665084843 0.33462543947408768 0 1:-69.25 2:-78.5 3:-80 
-0.63413265140439579 0.53532926210401788 0.59372062400158387 1:-74.75 2:-79.833333 3:-85 
-1.0265766267197112 1.9719233125857378 0.96181169514304898 2:-83.157895 3:-82.181818 
-0.78318449627988984 0.66154239395541037 0.49473269838491718 1:-68.482759 2:-75.131868 3:-85.58 
-1.1502737464998272 0.97120904131968278 1.0693325796178459 1:-76.222222 2:-84.285714 
-1.280808038773404 1.0811288523788376 1.2004745323716832 1:-77.333333 2:-75.043478 3:-72.8 
-1.3649619451581883 1.151912777125047 1.2793447450047184 1:-71.333333 2:-84 3:-92 
-1.0260678538681884 1.9797342470690475 0.96280788977738418 2:-83 3:-84 
-0.85234548370982055 0.72015684989718998 0.79965606641608078 1:-75.642857 2:-82.705882 3:-70 
-0.87655158008818135 0.73954041752544875 1.1261593126715563 1:-69.454545 2:-73.408805 3:-86 
-1.2347022936109706 1.0427396328479444 1.1574054829028697 1:-73.6 2:-81.166667 3:-76 
-1.0234040113226586 0.88611667369149827 0.98357805205934024 1:-77.454545 2:-71.25 3:-74.44 
-1.3648541616797445 1.1872920669251643 1.2793256045059149 2:-80 3:-70 
-1.3640233910669473 1.1515108466075534 1.2987134742452164 1:-59.2 2:-79.747368 3:-88 
-0.43111837205249059 0.36339227232783444 2.8702280428961799 1:-70.101266 2:-77.242857 3:-80 
-1.1744122605548342 0.99184983002714699 1.1012770913616174 1:-72.666667 2:-80.666667 3:-86.666667 
-0.72153570718636628 0.60709069214503741 0.67610019442005975 1:-74.736842 2:-72.153846 3:-69.25 
-0.21693358567028279 0.18178285420451473 0.05897621857857397 1:-71.333333 2:-79.25 3:-80 
-1.3026483602896595 1.0993501811363779 1.5279926117539446 2:-76.857143 3:-84 
-0.9111315163197754 0.76893795540904808 0.8508604099360223 1:-81.767123 2:-71.189964 3:-73.746835 
-1.2030935894220183 1.0159773200667275 1.1144399889243994 1:-62.15 2:-71.789474 3:-76.520833 
-1.180944834277555 0.90512779590585779 1.0051444001206433 1:-77.333333 2:-70.27907 3:-76.181818 
-0.81193186749073909 0.68570046144506547 0.56892986031798221 1:-68.642066 2:-78.6875 3:-82 
-0.85852418884499349 0.72442709955420348 0.73492608731925924 1:-74 2:-82 
-0.17192075149883393 0.14730870493272843 0 1:-70.590909 2:-73.921053 3:-81.020408 
-0.67442031876443553 0.56946378898840377 0.6309741148424719 1:-80.769231 2:-72.614719 3:-72.766667 
-1.3634664742340867 1.1509830900964431 4 1:-63 2:-73.333333 
-0.16421812357511958 0.1391995025536846 0.15750144476857192 1:-82 2:-71.823129 3:-73.142857 
-1.2390587796290384 1.0510920387203317 1.1663831242206459 1:-66 2:-79.266667 3:-72.615385 
-0.86863405264344373 0.73260605731461603 0.81385859179150988 1:-72.564886 2:-74.870588 3:-72.910569 
-0.19555909908163785 0.11372144875611487 0.015102956403300704 3:-80.666667 
-0.78159962840409691 0.67539114082441143 0.74987869853000844 1:-69.376623 2:-71.810398 3:-75.612903 
-1.3642529020198875 1.1520835945878658 1.7442504986533494 2:-72 3:-84 
-1.0285335946359195 0.86807053749481844 1.9910386746510838 1:-67.512821 2:-75 3:-82.4 
-4 1.152169954575766 1.2793533464020517 1:-75.6 2:-63.507692 3:-79.287671 
-0.82973961486635883 4 0.70661479343243228 2:-84 
-0.60650985207008268 0.51201244243794963 0.56853239363659169 1:-78.181818 2:-82.307692 3:-82 
-0.95730215543257813 0.80761225886437182 0.89277172544200212 1:-70.5 2:-82 3:-82 
-1.3493259628116032 1.1394493683656062 1.7107597657424736 1:-64.348485 2:-80 
-0.8757533696997204 0.74141566958912286 0.82371879985504382 1:-68.261538 2:-74.472727 3:-74 
-0.62046480314316366 0.53757383780530898 0.5960997173059156 1:-68 2:-71.87234 3:-76.28 
-0.22494208894878473 0.19129293807528519 0.21214292009118543 1:-76 2:-82 3:-71.6 
-0.49394916651816795 0.4175358310266965 0.48307382195167592 1:-70.727273 2:-80.489796 3:-82.05 
-0.73867142927788365 0.62379369226171144 0.69484580293162834 1:-74.333333 2:-81.807692 3:-83.5 
-1.3609920903515769 1.0770493067796882 1.1956845377319982 1:-66.706667 2:-82 3:-72.600733 
-0.18086631318567176 0.15297326432491051 0.80935440492611566 1:-68.8 2:-77.75 3:-82.666667 
-1.2244753881156978 1.0335762067709615 1.3214658379910367 1:-60.536585 2:-72.031873 3:-78.474227 
-1.2773755205625232 1.0782490166192411 1.1955984346079971 1:-62.509636 2:-75.903743 3:-74.272727 
-0.88496683454225489 0.74771619179699067 3.9634278469451965 1:-65.25 2:-77.076923 3:-79.473684 
-1.3595627537471346 1.1478893017452816 1.2744179279277965 1:-76.264706 2:-68.120755 3:-67.632231 
-1.3531775904723655 1.1419799553752992 4 2:-74.933333 3:-79.6 
-4 1.0365181815588398 1.1508460682388779 1:-77.833333 
-0.33305240932591151 0.28109222843504128 0.11201044154757257 1:-65.705882 2:-77.02069 3:-83.333333 
-0.35210121801125688 0.29965091441987535 0.33319576903054138 1:-76 2:-80.333333 3:-70 
-0.9140664069647747 0.77149483931277996 1.2544443440631352 1:-62.5 2:-79.6 3:-84 
-0.89318642227159473 0.75390171855027133 0.4295160017268681 1:-71.363636 2:-77.238095 3:-78.424908 
-0.9117976024341905 0.76902158564137191 0.7984589136296969 1:-70.857143 2:-73.368421 3:-79.333333 
-0.66428129077882558 0.56181171648483474 0.75638151680498555 1:-70.181818 2:-79.142857 
-1.0278209741335489 0.86802591125910633 2.521659492160663 1:-62.764228 2:-76.576923 3:-82.2 
-1.0219757299737702 0.86243697647414219 0.96767114596968162 1:-66.8 2:-77.333333 3:-77 
-0.5855551898955077 0.49327281597418404 2.2187471660330482 1:-65.902174 2:-78.887574 3:-79.885714 
-4 0.82791227509710685 0.91944167298585333 1:-75.4 
-1.3920433401226935 1.1499933656397692 1.2937515259292451 1:-64.25 2:-82 3:-76.393443 
-0.92988696633224244 0.7832786874142017 0.88126729671475701 1:-69.44 2:-74.61157 3:-77.37234 
-0.72471354705707713 0.61162136852570703 0.67900162843177236 1:-74.583333 2:-74.3125 3:-76.363636 
-1.268070348052591 1.0706799824401712 1.188981285565226 1:-70 2:-73.875 3:-70 
-0.85585268157409788 0.72219656047071568 0.9199981906243061 1:-65.102041 2:-74.891139 3:-78.876923 
-1.2441310536169479 1.0502650666617839 1.2209442508117472 1:-62.444444 2:-76 3:-77.454545 
-0 0 4 2:-78 
-0.81147413915418021 0.68432966083331848 0.76016790914571397 1:-74 2:-81.5 3:-70 
-0.75653410453574299 0.63963767671967342 0.70958590378555364 1:-71.333333 2:-74.666667 3:-72 
-1.1875726737991223 1.0026478821314606 1.1130931410723102 1:-74.5 2:-71.809524 3:-72.363636 
-1.1723939839256807 0.98985849996602771 1.0987274362428963 1:-77.75 2:-79.555556 3:-82 
-0.97478902270852597 0.82223700321078996 0.91361949604943349 1:-77 2:-80 3:-84.5 
-1.0471749880682268 0.88370956618784458 0.9832935547420214 1:-75 2:-77.444444 3:-81 
-1.2330492418061891 1.0405736802724335 1.1557622518445114 1:-73.25 2:-71.777778 3:-76.415094 
-0.58526057842008838 0.49266228763575948 0.70958995130841629 1:-70.153846 2:-74.076923 3:-82 
-0.37423335430270105 0.31591788917157493 0.34411398909207258 1:-72.174757 2:-79.405063 3:-84 
-1.3540697758122859 1.1434073864303504 4 1:-66.8 2:-76 
-0.60746597239532041 0.51402609324309689 0.66043718291456011 1:-71.918367 2:-80.258427 3:-79.46875 
-0.43470159639240863 0.36647260771977302 0.37000939157189611 1:-73 2:-80.2 3:-82 
-1.3328622330014293 1.125424084539177 1.5163088113080798 1:-69 2:-70.333333 3:-84 
-0.22848504802184216 0.19297316149355462 0.25314540504282607 1:-72.461538 2:-79.858209 3:-81.782609 
-0.18031708469964125 0.15338773717669874 0 1:-71.054313 2:-78.012945 3:-80 
-0.99192832851863821 0.83786747023988994 0.93112579005421237 1:-73.328244 2:-74.440299 3:-77.875 
-4 4 1.6204080728997003 3:-81.333333 
-1.3647111099291989 1.1521374394496193 4 1:-58 
-0.36307256788013692 0.30950774161026501 0.34240836968033356 1:-68.56338 2:-74.576832 3:-75.834646 
-1.2909920923517073 1.1011688550601555 1.3071787328464013 2:-78.285714 3:-81.333333 
-0.66469959768554543 0.56111748858092669 0.49042597048226133 1:-68.336842 2:-77.494505 3:-78.419355 
-0.89013739594720021 0.7521819925192943 2.5186736626412909 1:-60.915888 2:-76.697674 3:-84 
-0.69798334247724758 0.58873534516223469 0.40148340974363794 1:-68.477612 2:-77.806452 3:-84 
-1.2082989599356173 1.0203573394656549 1.1333812618470667 1:-74.625 2:-77.083333 3:-71 
-1.3267749998705098 1.1204832113631769 1.2434457113308319 1:-75.333333 2:-76 
-0.72005452545111659 0.6098782020070741 0.67514055320284994 1:-74.928571 2:-71.428571 3:-69.2 
-0.067096344953950532 0.05453292757579882 0.060777286714418448 1:-75.260274 2:-80.36 3:-71.5 
-1.5232730540200066 1.1520526908538113 1.2793510847648608 1:-71 2:-64 3:-72.857143 
-0.96026630680288483 0.81072860380947154 0.90229671991216731 1:-72.263158 2:-78.216667 3:-85.25 
-1.3041700568908008 1.1009103898161265 1.2224494337117087 1:-75.8 2:-71.926829 3:-79.180556 
-0.11172777234426885 0.096013726925220907 0.10308773482349069 1:-73 2:-80 
-1.1135889723596204 0.94014753838653831 0.95790034381236477 1:-72.8 2:-76 3:-82 
-1.1719641676757824 0.98895256983574165 1.0981712267099837 1:-76 2:-82 3:-73.333333 
-0 3.5649427808372716 4 2:-78 
-0.66058774946605769 0.55825826778849497 0.62582439408651336 1:-74 2:-79.2 3:-83 
-0.30860341849452122 0.22045504582031741 0.24544469105750108 1:-68.465608 2:-72.125 3:-75.170213 
-1.266151851699979 1.0684879028818897 1.1861304106608381 1:-72.043478 2:-70.527473 3:-72.88 
-1.0316049021903924 0.87040429011870313 1.0326033347276051 1:-70.8 2:-77.142857 
-0.71095677244042177 0.60216196814561695 0.66873311090657239 1:-76.222222 2:-79.6875 3:-71.80597 
-1.3138971586832642 1.1090922022859064 1.2306199203586292 1:-75 2:-84.5 3:-79 
-2.3676473373133247 1.0028600744052478 1.1134666270920626 1:-73.130435 
-1.2733147419545834 1.0750395993155002 1.1936853289932499 1:-72 2:-86 3:-84 
-0.46593752776596953 0.39247714630409614 0.43729214406516442 1:-80.713043 2:-72.708772 3:-73.625 
-1.1222740077168687 0.94776349135006421 1.1233347670825862 1:-74 2:-85 
-1.0740780243236345 4 3.9890535769400675 2:-78 
-1.2760127363882223 1.0776065905367134 1.196111889303209 1:-70 2:-88 3:-84 
-1.2948644318668809 1.0930585171526375 1.2139937600614454 1:-68.333333 2:-82.5 3:-84 
-1.241401228669414 1.0487846252991364 1.1644089501568382 1:-72 2:-80.444444 3:-71 
-0.71307808342270051 0.6016737037160993 0.48489626152331422 1:-61 2:-78.666667 3:-84 
-0.49869345504515439 0.42162682828857156 0.26120159960671918 1:-69.25 2:-75.380531 3:-83.391304 
-0.64027357999367174 0.53998550096055342 0.60000346054934495 1:-77.84 2:-83.454545 3:-82.666667 
-0.16362876048387476 0.13651475146531097 0.15255210135025379 1:-68.44 2:-76.242038 3:-74.875 
-0.57329824435653276 0.48284610730356503 0.53569858794980441 1:-76 2:-79 3:-70.5 
-0.4306311207171854 0.36334165015166769 0.43338248910230626 1:-73.333333 2:-78.981818 3:-80 
-1.2824833854722884 1.0825443037315277 4 1:-60.084592 2:-74.171821 3:-83.333333 
-1.3591787604871959 1.1469256081666981 1.2732952590085829 1:-82 3:-84 
-0.60868417809922704 0.51318143808091587 1.4644696143718781 1:-71.00885 2:-75.387097 3:-80.619883 
-1.1190248552138293 0.94470713894354952 1.0368838863325169 1:-64.846154 2:-74.117073 3:-76.333333 
-0.49782813704300166 0.42048936462476111 2.0453117380136985 1:-63.496933 2:-77.88189 3:-84 
-1.3581244130636143 1.1466643441466695 1.2732108109122662 1:-78 3:-84 
-0.55923603537059152 -0.3865982731410007 0.50669189918659041 2:-86 3:-50.536653 
-4 -0.7887539894842075 1.0362563746704618 3:-67.5 
-0.39379779108168056 -0.27412370028951272 0.35674621237855453 2:-74.627451 3:-56.824356 
-0.31273616738104182 -0.22790744653796685 0.28334598009734524 2:-75.391304 3:-51.205176 
-0.055798224186137328 -0.0081528729353571253 0.23149434925019682 3:-51.555556 
-1.2003697969408023 -0.82917889224708963 1.0893293131244046 2:-78 3:-32 
-0.55360453952119992 -0.38274728226874455 0.50264980495788325 1:-84 2:-78.8 3:-51.701571 
-0.2465007379182429 -0.16865303217829009 0.22115293360317717 2:-84 3:-52 
-0.66183258292281499 -0.45658158247220482 0.6001934245686954 2:-70 3:-50.571429 
-0.8644360319378076 -0.59617015518567762 0.78444312389895365 2:-82.210526 3:-59.226533 
-0.37441284215067183 -0.25931266668180009 0.34033686130231 2:-71.529412 3:-51.61528 
-0 -0 4 2:-74 
-0 -0.0055494407912704598 0 2:-76.324324 3:-49.895678 
-0.047510643128088649 -0.11234353152644609 0.089599565618541058 3:-48.4 
-0.7779596922764459 -0.53694872163686824 0.70530592174668238 2:-80 3:-61.111111 
-0.3039526612264582 -0.08060627183833835 0 3:-57.6 
-0 -0.04390964446537457 0.0012313123332143648 3:-59.789474 
-0.71357340936003344 -0.49344567187418342 0.64748023123626519 2:-76.676923 3:-59.654762 
-0.19864788477787582 -0.13768321746696771 0.18062410086204811 2:-76 3:-57.6 
-0.77979875747842042 -0.53766329110612321 0.70714785519904044 2:-78.666667 3:-36.666667 
-0.10221598404238488 -0.072355486780006015 0.095525024208953355 2:-83.076923 3:-50.058824 
-1.2274063206075021 -0.84770607061020109 1.1132830879003655 1:-78 2:-81 3:-53.5 
-0.87268857334696315 -0.60355657950666042 0.79191072990750655 1:-82 2:-80.5 3:-57.5 
-0 -0 0.0058501912444558716 3:-59.230769 
-0 -1.1296163511652169 0 2:-85 
-0.36858590029588773 -0.24445258734027234 0.33519521598287333 2:-78 3:-52.571429 
-0.68823564385737479 -0.47505106919019358 0.62414040853333974 2:-86 3:-46.181818 
-0 -0 4 2:-72 
-0.32034373980550995 -0.22388637755980664 0.29067298434718652 2:-76.333333 3:-54.153846 
-0.39816606970482105 -0.27444613500319154 0.36167756447295246 1:-82 2:-80 3:-56.084922 
-0.003767781617604115 -0.010303843571948246 0.014962080446936298 3:-49.5 
-0.35956252042504694 -0.24962763692220313 0.32574988831962731 1:-84 2:-73 3:-50.676498 
-1.0931411019942046 -0.75474025979099457 0.99164669280149953 1:-90 3:-49.333333 
-0.67910512587825056 -0.46864756533196894 0.61609238836653546 2:-83.5 3:-53.333333 
-1.26628344487386 -0.36079335532683277 0 3:-82 
-0.2040120762262452 -0.13814383391613469 0.18516400454275828 2:-83 3:-57.142857 
-0.68048199228342332 -0.46937431262233786 0.61452548443539012 3:-29.2 
-0.39214845474250082 -0.11608908433585681 0.096568400567729071 3:-51.714286 
-0.44065278799772789 -0.30418805564388413 0.39984085779270473 1:-84.4 2:-86 3:-56.625 
-0.49871992361963435 -0.34550803920029749 0.453422943756567 1:-83.5 2:-80 3:-48.8 
-0.76060089935256592 -0.52560950332176493 0.69096803465248691 1:-86 3:-45.257143 
-0.0091974347409293986 -0.014595467941444199 0 3:-48.142857 
-1.1367488937829138 -0.78492643785073768 1.0308319817684988 1:-88 2:-86 3:-63 
-0.5081585106195573 -0.34900143025455671 0.46058725725811345 2:-76.5 3:-49 
-0.16804691610613043 -0.11776770261536172 0.15674428419948311 1:-90 3:-46 
-0.4584280138128709 -0.3111988029894317 0.41685623306191938 2:-80 3:-52.8 
-1.2170157887219788 -0.84059052177483085 1.1041764793540467 1:-86 2:-86 3:-38 
-0.4283378587626393 -0.29972521174435962 0.38889947823261495 2:-86 3:-56 
-0.26359956465722673 -0.15079155812232076 0.24250264699017671 2:-78.5 3:-56.638889 
-0.75874220582411422 -0.52271160969935193 0.68987852867755894 2:-74 3:-46.076923 
-0.076361843808044727 -0.061064127153737026 0.069021386866838147 2:-81.333333 3:-57.75 
-1.1907084171040543 -0.82252049716458853 1.0804936718652185 1:-85 2:-85.142857 3:-41.533333 
-0.66648578672579517 -0.46068458498269066 0.60425824660534955 2:-80 3:-46.380952 
-0 -0.0023273224934456938 0 3:-59.4 
-3.9665420209351661 -3.9991118004272606 2.6178237825827892 3:-82 
-0 -0 4 2:-74 
-1.0404752022790009 -0.71847920220176253 0.9439325589454588 1:-82.666667 2:-78 3:-61.008197 
-1.0765417864763647 -0.73773727840353498 0.97664576549334092 2:-84.5 3:-70.857143 
-0.41455784441613369 -0.28438078750917123 0.37452911027008734 2:-78.181818 3:-39.945946 
-0.47495519064933017 -0.32834692009084115 0.43121773322578888 2:-76 3:-47.923077 
-1.2227547467140962 -0.83234474558261906 4 2:-68 
-0.40030633730980786 -0.2695268817438326 0.36330893225759892 2:-80 3:-51.182266 
-0.71477437821373724 -0.49404885936901172 0.64816088465390476 2:-67.375 3:-58.476821 
-1.1624236795718352 -0.80282790270587723 1.0550575299691916 1:-88 2:-83.75 3:-46.765957 
-0.37066270568764292 -0.25701432009409608 0.3364922719140328 2:-79.333333 3:-60.546763 
-0.58560845071927137 -0.40218734774713211 0.53239769956751692 2:-78 3:-50.4 
-0.6823011277959965 -0.47094969796688069 0.61797513010907568 1:-84.571429 2:-77.891892 3:-42.542857 
-0.89884379504177991 -0.62085991028054122 0.81565709841436718 2:-68.666667 3:-47.5 
-0.58340472110330877 -0.40383106794857088 0.52953471333157398 1:-84 3:-52.736021 
-1.2257700681499279 -0.84637860557212874 1.1120115250988398 1:-90 2:-80 3:-44 
-0.3934629608944632 -0.27748313251127665 0.36172225595922475 2:-74 3:-49 
-0.86214945488296113 -0.59418222699594381 0.77805586955298545 1:-90 3:-45.655172 
-0.75102556942604981 -0.5186475176677604 0.68103977992409903 1:-86 2:-74 3:-46 
-1.2276495109672381 -0.84776379846792305 1.1135501475226981 1:-56 2:-61.809524 3:-66.615385 
-0.16037605212547751 -0 0 3:-47.333333 
-0.335758247100298 -0.23223469785420936 0.30520269698480407 1:-85.6 3:-52.4 
-0.8868575697582759 -0.61210567015268869 0.80416346091994373 1:-86 2:-83.986207 3:-64.74189 
-1.0797368197298423 -0.74550163896802502 0.97919836250349868 1:-86 2:-69.4 
-0.011768135909660806 -0 0 3:-58.23622 
-0.48919745736491205 -0.33780342595658591 0.44363540254891626 2:-74.266667 3:-53.963247 
-0 -0.040840303480645559 0 3:-57.5 
-0.078916086759604848 -0 0.00082427066393616266 3:-51.25 
-0.99442063769947819 -0.68710384082817155 0.90191197842954607 1:-84 2:-86 3:-54.266667 
-0.43687704074219164 -0.29683270345909996 0.3979054611899569 2:-75.2 3:-55.666667 
-0.18120345241492905 -0.124609686789691 0.20272556560569396 3:-57.168 
-0.25970009505791686 -0.15663328511893357 0.24079487987968951 2:-77.333333 3:-55.159817 
-1.2277904672050113 -0.84803558453497829 1.113660631812099 2:-74 3:-72 
-0.75376288697587834 -0.52030582098567346 4 1:-86 
-0.80247138834958631 -0.55390670705753853 0.72746778497547193 1:-84 2:-81 3:-48 
-0 -0 0.010277932713409601 3:-59.21547 
-0 -0.0051990937664150045 0 2:-80 3:-57.258252 
-0.42343822866895353 -0.29248592881767865 0.38460056238683044 2:-86 3:-53.10574 
-0.67857369370132603 -0 0 2:-82 
-0.51596576046896969 -0.3560975856909861 0.46880378180549548 2:-82 3:-63.401535 
-1.037314535039866 -0.71615984920829212 0.94166428603704488 2:-88 3:-52 
-0.045143876568765416 -0.045047952519817441 0.040077953194340453 2:-78.769231 3:-58 
-0.81373990987738887 -0 0.95230591824970767 2:-80 
-0.94961249230835876 -0.65623059933976846 0.86179714513950112 1:-81 3:-51 
-0.45868411318275781 -0.31837213276541665 0.4156991899353818 2:-82 3:-56 
-1.17626896801981 -0.81249585230659227 1.0672279032110952 1:-86 2:-80 3:-46 
-0.16170601298628492 -0.11045428782020486 0.1446499391306364 2:-76.857143 3:-43.058533 
-0.6167417930407203 -0.42606656656839942 0.55971340038069439 1:-86 2:-77.014085 3:-42.466089 
-0.67911339728067355 -0.46869125089233099 0.61648405009304297 1:-84 2:-84 
-1.2272437607630591 -0.84771374268368938 1.1135281122126812 1:-86 2:-81.5 3:-69.6 
-0.028463294196252032 -0.026083168990791175 0.010479125232647778 3:-45.6 
-0.043857272128438894 -0.039045358710050909 0.03849386784770948 2:-77.735849 3:-51.687912 
-1.0169209350251502 -0.70253822760215168 0.92289242782160996 1:-82 3:-46 
-0.50874400566703681 -0.34983532479758722 0.46077146671459873 2:-72.25 3:-54.243767 
-0.0058490334601844912 -0 0 3:-51 
-0.00060625281893067484 -0 0 2:-76 
-0.2969721694306105 -0.19982251913129145 0.2680897755258515 2:-74.285714 3:-50 
-0.030944050369801121 -0 0.029189439900945378 2:-79.2 3:-55.426188 
-0.98094929361615857 -0.67934265819357775 0.88859174696405974 1:-78 2:-80 3:-41.954545 
-0.56447075230718191 -0.39036669940399205 0.51201218173663587 2:-84 3:-48 
-0.9586046447379446 -0.66227696442293515 0.87024318931340627 2:-76.4 3:-40.645161 
-0.042513407938120119 -0.030244399118276675 0.040501374761672426 1:-87 3:-48 
-0.61842764157626517 -0.42701779300823511 0.56105927503767072 1:-86 2:-74 3:-47.714286 
-1.0815842467934838 -0.79923952008239552 0.98148574825999479 2:-82.333333 3:-72 
-0.71252046092592558 -0.49223218304747562 0.64752726176418618 2:-72.5 3:-57.566085 
-0.22842079978810267 -0.14366659478872856 0.2078162732792363 2:-76 3:-51 
-0.70042212431168827 -0.48400837251496581 0.63438641528630091 2:-82 3:-63.817575 
-0.2050859840938806 -0.16474572467028145 0.18446715400592653 2:-79.5 3:-56 
-0.76403480767143062 -0.52786418415685732 0.69283781985645776 1:-86 2:-86 3:-56.893617 
-1.060630798718424 -0.73239502843299187 0.96195935316364078 1:-84 2:-71.741379 3:-53.605989 
-0.89268727674083947 -0.61615997278432977 0.80944713321217232 1:-86 2:-72 3:-50 
-0.44033448968836053 -0.30629595665555159 0.40190595347505498 2:-78 3:-42.804255 
-0.97886510138820793 -0.67616230915775777 0.88798986738578012 2:-76 3:-62.823529 
-1.0436779205079052 -0.7207965696898978 0.94658205266301199 1:-84 2:-86 
-0.58902124137051259 -0.40598660913488122 0.53454547168966438 1:-84 2:-78 3:-56.68 
-0.45079922886950352 -0.30769029529445913 0.3979679167212869 1:-88 3:-48 
-0.26363218475146238 -0 0 3:-46 
-1.2277096774158278 -0.84782136255570351 1.1136302031313341 1:-53.333333 3:-66 
-1.0040753248225787 -0.69310874495559471 0.91101510076100345 2:-86.285714 3:-61 
-0.67758389309838662 -0.46862675165456957 0.617190533977095 3:-30 
-0 -4 4 2:-76.666667 
-0.040217857008410227 -0 0 3:-48.625 
-0 -0 0.0066821899638038924 3:-59.5 
-0.092814299905511918 -0.063993418733645155 0.082586940416591537 2:-79.333333 3:-49.6 
-0.50955355715529249 -0.35130775684159271 0.46192323877507308 1:-86.8 3:-50 
-0.95191890486379471 -0.65758115553030183 0.86398217465189786 1:-84 2:-84 3:-58 
-1.539364287191286 -0.84766572056654832 1.1138394243010605 3:-76 
-1.1008343748603802 -0.76048920606552639 0.99895708944267481 1:-80 2:-76 3:-51.221374 
-0.032138106848392183 -0 0 3:-56 
-0.71205079034637231 -0.49209678791303224 0.64597740265596437 1:-84 2:-84 3:-55.454545 
-1.1838840772280044 -0.81731767687999102 1.073921254122906 1:-82 2:-70.333333 3:-43.214286 
-0.04174011060106822 -0 0 3:-62 
-1.0592041724334516 -0.73106315808334033 0.96072596208123129 1:-83.5 3:-55 
-0.99963990060434638 -0.69065239147663782 0.90709172637615521 2:-74.342857 3:-60.976407 
-0.046026624371109513 -0 0 3:-54 
-0.62541413332528961 -0.43051560044507126 0.5666770337544913 1:-86 2:-85.411765 3:-60.824601 
-0.9506216149066965 -0.65658825156433287 0.86241979419493375 2:-88 3:-57.25 
-0.53731236266059712 -0.37178459839291111 0.48763561758852703 1:-84 2:-79 3:-56 
-0.88069972727897039 -0.60877613732530855 0.7995510297792362 2:-81 3:-44.4 
-0.18838024008281193 -0.12779146743163391 0.17184145926729932 1:-78 2:-80 3:-42.403263 
-0.11635763545439774 -0.080342502764056301 0.10549610494077742 2:-85 3:-49.8 
-0 -1.9447585759993817 4 2:-79.666667 
-0.64872271082631305 -0.448286835209183 0.58825253523637044 1:-82 2:-78.4 3:-56.38914 
-0.034873180233736867 -0 0 3:-50.857143 
-0.34520666025649105 -0 0 3:-60 
-0.31722195498966183 -0.22058066004202512 0.29031554098336249 2:-83.5 3:-52 
-1.2216990251240265 -0.84395804282550158 1.1084212992249811 1:-81 2:-79.428571 
-0.39160730906658581 -0.32818062644382107 0 3:-58.376404 
-1.0249927546207578 -0.70791677009838105 0.88248104626653023 1:-90 
-0.038802990295680011 -0.18762557695021312 0.21313057298752042 3:-51.5 
-0.86721137832197936 -0.5991834162004932 0.78651593743926973 1:-86 2:-82 3:-50.5 
-0.28622926974728535 -0.19597634872134481 0.25802613002138397 2:-78 3:-44 
-0.74373974566015377 -0.5146513552370745 0.67628310121238189 2:-76 3:-44 
-0.34215249898675248 -0.23863297981737272 0.31024191322049816 2:-76.436364 3:-52.475926 
-0 -0.0020613217894961959 0 3:-59.333333 
-0.018863213198676385 -0.0066417531583809024 0 2:-84 3:-56 
-0.012409471992165508 -0 0 2:-74 3:-48 
-1.0364345057945792 -0.71614345551294301 0.94044054992164672 1:-84 2:-82 
-0.49754375736306972 -0.33854503951452297 0.4516826005725198 2:-78 3:-58.4 
-0.61122254196215797 -0.42220333709168339 0.55478850872721874 2:-69 3:-49.333333 
-0.69692237252310862 -0.48184525231953773 0.63328985368331303 2:-78 3:-46 
-1.3587078269104762 -0.83430489512353967 1.0959335844836549 3:-71 
-0.83374205204041529 -0.57639323218493921 0.75653811965283058 2:-85 3:-44.8 
-0.91734584773471073 -0.63359483481366852 0.83177719331678845 1:-84 2:-78.163462 3:-59.267606 
-0.024803206124671819 -0 0 3:-48 
-1.1685961222212056 -0.80708341045941157 1.0600944042181315 2:-72 3:-44 
-1.2259992828756021 -0.84666756886945649 1.1120359704853979 1:-86 3:-62 
-0.047766071032703791 -0 0 3:-54.333333 
-0.13293281981169217 -0.090617096117664053 0.12027077445906965 2:-86 3:-58 
-1.0825241547202722 -0.74726013285884896 0.98339577310805082 3:-43.714286 
-0.4171042896868945 -0.28869623682086171 0.37785712918353431 2:-86 3:-54 
-0.018883699490228403 -0.016707600821547063 0.018028722247958446 2:-73.036364 3:-53.541265 
-1.0581512174036278 -0.73027017583998044 0.96002187265678807 1:-84 2:-74.495238 3:-53.659514 
-1.0655566369142526 -0.73643929798489738 0.96690207986833876 1:-84 2:-85.9375 3:-50 
-0.39560378531522178 -0.27327213451764609 0.35781723438990004 1:-86 3:-49 
-0.69481504605269173 -0.4793203468068159 0.6301940965927062 1:-86 2:-86 3:-45.360372 
-0.087237186132757105 -0 0 3:-47.333333 
-1.2252041672816447 -0.84624735837743936 1.1115937925103707 1:-90 3:-55 
-1.2275575829742398 -0.84774857029813222 1.462907754853233 1:-53.150838 2:-68.693333 3:-79.245902 
-1.2274834101837864 -0.84782847517372895 1.113396647303053 1:-84 3:-34 
-0.81471467999392577 -1.7871887088130685 0.46057589417958872 2:-76 
-0 -0.094826927872138783 0.0061141294980147903 3:-54.8 
-0.68546651359082933 -0.47306126708487883 0.62192287581141381 1:-84 2:-79.526971 3:-53.018205 
-1.2270450973056106 -0.84758276526459542 1.1132931862767941 2:-86 3:-40.117647 
-0.23689083352776136 -0.16377061537436075 0.21601341503491031 1:-85.333333 2:-81 3:-51.392857 
-0.3057142228860884 -0.19944483804266092 0.27852315241944225 2:-80.716418 3:-56.934737 
-0.45284332709236608 -0.20026235590599184 0.39385073876198917 3:-48.285714 
-0.12835612978090694 -0.09705279141986782 0.11511654408030733 2:-80 3:-52.102804 
-0.012262883732305295 -0 0 3:-60.888889 
-1.0227913021261126 -3.6907225237662624 4 2:-72 
-1.0395844447403004 -0.71737238824883343 0.94288091696485166 1:-88 2:-81.2 3:-52 
-0.55903537725084196 -0.38648154591495443 0.50719834746777004 2:-87.166667 3:-59.139373 
-0.5481628395326047 -0.37978718772234599 0.49803166994480269 1:-84 3:-50 
-0.42558125667374685 -0.29398936684857202 0.38516669805307485 2:-76 3:-46 
-0.029831350476712971 -0 0 3:-53.333333 
-0.0025121352876158604 -0 0 3:-56 
-0.80695227468150688 -0.6185681905509437 0.81349395278652648 3:-62 
-1.1433668336334402 -0.78999985534922601 1.0373441017662479 1:-80 2:-79.6 3:-44 
-0.086921141390175691 -0.095261418665183395 0.3107911685353939 3:-54.333333 
-0.35850106746408061 -0.026400678374569893 0 3:-46 
-0.58101302071328598 -0.40035802239571122 0.52547506853171666 1:-88 3:-45.611111 
-0.093737160751860782 -0.076031234566139486 0.059945340051459399 2:-74 3:-48 
-0 -0.072091815942600987 0 3:-57.337349 
-0.25175597414696183 -0 0 3:-60 
-0.31697023020564996 -0.21840578746575195 0.28608937356694419 2:-71.586207 3:-57.183673 
-0.054315773668324352 -0.064759666556790038 0 3:-48 
-0.88771818107502687 -0.61289890640474365 0.80514671321124276 2:-80 3:-38.347826 
-1.1451103392818283 -0.79097642881496855 1.0388114873352756 2:-66 3:-47 
-0.065970780082526034 -0.007593952355663125 0.13768490042641487 3:-59 
-0.49732120544234915 -0.34244243337656166 0.45064386911429588 2:-75.25 3:-58.192171 
-0.73908501765891355 -2.3133913039480181 4 2:-74 
-1.0249520787365844 -0.70809965537353503 1.1093536407976412 1:-84 
-0.67135257646446289 -0.46328556417523009 0.60887792852140332 2:-68.230088 3:-58.193814 
-1.2254351809110409 -0.84639486813514719 1.111793617243775 1:-86 2:-89.975232 3:-63.273349 
-0.69290078237576935 -0.47815237178090553 0.62851055904445419 2:-86 3:-49 
-0.85667552409780079 -0.59126800834127002 0.77658367169390763 1:-87 3:-52 
-1.079460761324802 -0.74529496013593899 0.9793009563848174 1:-88 2:-68 
-0.20231010125517224 -0.14382022928386623 0.18511503081322817 2:-80 3:-50.222222 
-0.4281361601584851 -0.29419145330955732 0.38823141049606913 1:-84 2:-73.382353 3:-50.97006 
-0.95328996457733262 -0.65821180047998951 0.86427453387875175 1:-82 2:-74.75 3:-50.5 
-0.91772003356107612 -0.63301477280629459 0.83240620407188537 1:-82 2:-75.948276 3:-44.643533 
-0.21632337387406925 -0.1488357648331711 0.19555104550098523 2:-73.954155 3:-52.665179 
-0.77891042863792548 -0.53865435381172944 0.70678854723809648 1:-83 2:-76 3:-43.255814 
-0.37838047383133089 -0.27246766979592357 0.34243086607155243 2:-78.666667 3:-54 
-1.1376295871987587 -0.78585622810334232 1.0320697563638481 2:-78 3:-64.679558 
-0.025892468876298081 -0.0088673479685955122 0 3:-54 
-1.2114560891534392 -0.83663142947874047 1.0985106027562617 2:-84 3:-66.8 
-0.58474650920944116 -0.40393648833938262 0.52951805314069089 1:-84 3:-45.793103 
-0.60057243175379715 -0.38830320670570662 0.56121714919916754 3:-50 
-0.15361549200789859 -4 0.68275387029774637 2:-82.5 
-0 -0 0.51363204831654252 3:-58 
-0.57044474683659285 -0.39446172651333689 0.51770590221987589 2:-73 3:-51.2 
-0.79109967049808483 -4 4 2:-78 
-1.1594170954478571 -0.80075144759688888 1.0511429629199072 1:-82 2:-71.5 3:-49.333333 
-0.02639695841192044 -0.10507640407081935 0.0052811768870382903 3:-51.333333 
-0.94071243824038275 -0.64990612886269228 0.85363421901636694 2:-70 3:-53.142857 
-0 -0.0041102731872969681 0 3:-52 
-0.62236443265708918 -0.42950533637236066 0.56437690752708469 1:-82 3:-49.6 
-0.94593285396698734 -0.65300578801624454 0.85799869029982545 2:-72 3:-48 
-0.36685391295140207 -0.25507425932803002 0.33374627103442428 2:-78.285714 3:-39.259259 
-0.12258784256903982 -0.094193796093230003 0.10710933983917884 2:-76.4 3:-55.11049 
-0.63745566214132598 -0.44080199283829913 0.57819738092507689 2:-80.8 3:-54.666667 
-0.63692649693338843 -0.4402212893465508 0.57725731954882642 2:-77.428571 3:-35.230769 
-0.58804322653507601 -0.40665095121130745 0.53349828108942843 2:-85 3:-58.857143 
-1.2277154681961462 -0.84788562935095235 1.1136228941667423 1:-75 2:-71.934211 3:-40.742712 
-0.1660358016436424 -0.11241872934312948 0.15025432041185349 2:-72.52381 3:-52.990826 
-1.2271845844109373 -0.84748247435828516 1.1136373766359879 1:-81.333333 3:-40.5 
-0 -0.031464484930723527 0 3:-48 
-0.031692379305725341 -0.014403793142746908 0.063299461226989706 2:-74 3:-47.882353 
-0.70980857526241459 -0.49046132606847909 0.6444654037198474 1:-86 2:-72 3:-48 
-0.12032533439877141 -0.46105014518245374 0.62672611396412226 3:-60 
-0.72889983950219261 -0.50358680406505052 0.66109821612082553 1:-86 2:-84 3:-56.428571 
-0 -0.1699306052302868 0 3:-47.333333 
-0.76581457732590319 -0.52897525653912347 0.69389889326043885 1:-86 2:-79.375 3:-52.454545 
-0.51363196063826522 -0.35390177348027002 0.46461502457091769 1:-84 2:-79.975 3:-50.175 
-0 -0.44807249276324701 0 3:-46 
-0.36399569120227149 -0.2503974826323922 0.32929405563060549 1:-86 3:-47 
-0.13502875213532428 -0.095615338944248271 0.13017138006789439 1:-88 3:-48.4 
-0.44741734622097146 -0.13525332613258775 0.17924807462977721 3:-64 
-0.98210497444802203 -0.67830592865453398 0.89131775374828925 1:-84 2:-84 3:-51.322835 
-0.80471906848299102 -0.55529739138019341 0.73028292137230055 1:-86 2:-78 3:-41.124324 
-0.76929865015628374 -0.53150959698360623 0.69790366992425823 1:-86 2:-82.5 3:-64 
-0.06091176225374572 -0.045521653892222957 0.052546228686761412 2:-73.609023 3:-46.747346 
-0 -0.0048822054476222168 0.00087588278768022337 3:-52 
-1.2116403685755681 -0.83689907866926749 1.099255822763467 1:-90 2:-78.857143 3:-50.206897 
-0 -0.055990332867012015 0.0022858008470233501 3:-54 
-0.30188049419500773 -0.2092959385116458 0.27384649662292238 2:-84 3:-58 
-0.16193551716201393 -0.10848369718995141 0.14763907726197747 2:-75.2 3:-52.785615 
-0.27217762255000838 -0.18423763681816743 0.24677991301953289 2:-86 3:-55.416667 
-0.50781072600651933 -0.34270272830253123 0.46056619418393407 2:-80 3:-58.365297 
-0.59244441780687085 -0.41055452574310675 0.53823406959841291 1:-86 2:-86 3:-60.871252 
-1.2275062586111736 -0.84785240499784509 1.1136385910844744 2:-88 3:-31.538462 
-0.030874103740357598 -0.026709724090957655 0 3:-49.333333 
-0.77618244166221106 -0.53535999227564779 0.70481279232532756 2:-80 3:-48.461538 
-0.81297723235734387 -0.55984623148686663 0.73461887705719531 2:-82.5 3:-50 
-1.0037962499525235 -0.69334694777209205 0.91069667566695922 2:-75.6 3:-34.89172 
-1.2274998297467035 -0.84803502635511652 1.1135244384665315 1:-84 3:-76 
-0.5942961756011651 -0.41082068191211457 0.53887760486987724 1:-86 2:-85.6 3:-46.129032 
-0.31306942390838433 -0.21470653785133631 0.28289885430276152 1:-84 3:-51.714286 
-0 -0.011634842547425129 0 3:-49.333333 
-0.95043467681783178 -0.65649897132760837 0.86227172554715881 1:-84 2:-73.142857 3:-46.26087 
-0.025392612636233741 -0.030625521804136704 0.0071475162102706 3:-49.636364 
-0.75402679124336092 -0.52064298010871002 0.87565164881133339 1:-88 
-0.56888297711478464 -0.39996025057134948 0.53346516102958419 2:-84 3:-56 
-1.1546641945957861 -0.79749191642173778 1.0476713456808586 1:-86 2:-80.923077 3:-61.793612 
-0.87067480420617649 -0.60029011763852558 0.78873387844144083 2:-80 3:-42.417308 
-0.65796298035255996 -0.45484970173470812 0.59755970158168226 2:-71.297297 3:-55.778163 
-0 -0 0.034523143923986054 3:-49.333333 
-0.31711060475656494 -0.25347807416108042 0.28292209408667374 2:-78 3:-56 
-0.50345337603617257 -0.34720167362653953 0.45659346804054607 2:-84 3:-46.666667 
-1.181117436084655 -0.8156289391740067 1.0715365407678257 1:-82 2:-73.5 3:-39.6 
-0.4127758964750553 -0.18463560015445168 0.23255731912385613 3:-54.571429 
-0 -0 0.087405293864889558 3:-48 
-0.69839424784017079 -4 0.53156603136570324 2:-84 
-0.0948678476771527 -0.067093929400552171 0.089528605585420556 1:-88 3:-47.128205 
-0.13445880073851438 -0.039995964313220521 0.70493573505593732 3:-46 
-0.64597263432755181 -0.4457781183016542 0.58589547854578394 1:-84 3:-48 
-1.2280488373370555 -2.8774726230178884 1.1138298286844759 2:-82 3:-83 
-0.50968410533808761 -0.38652705895436196 0.50302467468841816 3:-53 
-0.58489156927180086 -0.61874959066392954 0.81084709811203393 3:-64.666667 
-0.16564506527754341 -0.11498222376836292 0.15060115641554314 1:-84 2:-73.034483 3:-52.198037 
-1.1352861070877485 -0.78426389826910115 1.0299855464118826 1:-84 2:-72 3:-41.454545 
-1.2272185470137726 -0.84752624550830058 1.1130842842064181 1:-86 2:-74.615385 
-0 -0 0.21203490775819195 3:-47.333333 
-0.5689731765347783 -0.39522263604165497 0.56816128591495962 3:-56 
-1.0380606361382203 -0.12007359784409717 0.96205100337864757 2:-86 
-1.1773429521442613 -0.81332606202788149 1.0680882658677724 1:-84 3:-58 
-1.1809485710249761 -0.8156801948929181 1.0714657601213657 1:-86.4 2:-88 3:-42.842105 
-0.36540961656288462 -0.23414001567485171 -0.29127889107603711 1:-57.211538 2:-64.113208 3:-81.192308 
-0.029403512419811127 -0.021068046774273898 -0.013309187284708947 1:-55.352518 2:-65.72973 3:-84 
-1.0167600701525903 -0.65272413664587059 -0.80298412624981308 1:-48.60241 2:-58.26087 
-1.1231961980919309 -0.7205278991855345 -0.88598782322889802 1:-43.74359 2:-62.690058 3:-82 
-4 -0.36021763914083138 -0.44375971635365152 2:-62.038835 3:-81.454545 
-0.015423196963684079 -0.060769202301704586 -0.039732881627879336 1:-58.727273 2:-74.5 
-0.13034173660073511 -0 -0 2:-65.777778 
-0.99586279120452492 -0.75025615508424259 -0.78590120267270724 1:-68.181818 2:-82.933333 
-0.034780395903466807 -0 -2.6391384183176392 2:-70.929577 
-0.85324031375190423 -0.54734415944533055 -0.67304049214791595 1:-54 3:-85.777778 
-0.21697024037982487 -0.14504108335234153 -0.16778947281317691 1:-56.530612 2:-69.347826 3:-82.571429 
-0.8790456305458374 -0.56390813440122056 -0.6934809902168575 1:-50.590909 2:-64.598131 3:-86 
-0.40398761343627637 -0 -0.31981195145776814 1:-58.933333 2:-74.852941 3:-86 
-0.0091797188930056867 -0.023265672310235928 -0.01623633427827709 1:-58.6 2:-74.133333 
-0 -0 -0.035641718330608113 1:-58.666667 2:-72 
-0.13164536307353217 -0.085132287028800518 -0.10573607096199392 1:-58.433862 2:-65.860927 3:-81.649667 
-0.097015635837276709 -0 -0.063271549450876902 1:-58.25 2:-73.5 
-0.20988602627903721 -0.13383779846969898 -0.17396909110149433 1:-54.133333 2:-67.5 3:-83.5 
-0.17629300080973562 -0.11339058489183859 -0.14739259993868739 1:-54.396552 2:-63.33211 3:-80.617371 
-0.03911867125209665 -0 -0.014328661294084465 1:-58.086957 2:-72.216216 
-0.64766034227056912 -0.41553941814128442 -0.51060296261700977 1:-48 2:-67.666667 
-0.78379442304698665 -0.4103479844925384 -0.61825601064702784 1:-62 2:-69.857143 3:-83 
-0 -0.018378617935662735 -0 1:-58.130435 2:-70.536585 
-0.45903104545337864 -3.3461577351404546 -0.36214885754131121 1:-67.25 2:-76 
-0.81241668736517469 -0.51193956609264035 -0.63763964983871368 1:-63.822785 2:-62.489796 3:-84 
-0.44265987421111197 -0.28404980353195908 -0.34878040267332383 1:-53.43 2:-58.491803 3:-86 
-0.30804405581908911 -0.14649280114035945 -0.19718735318995653 1:-53.6 2:-60 
-0.79614952520502225 -0.51001428917811531 -0.62817348454567723 1:-48.117021 2:-70.823529 
-0 -0 -0.37040593680456568 2:-73 
-0.33812831177527797 -0.21439319015449909 -0.26843332214525595 1:-39.99061 2:-62.521739 
-0.042314546890824888 -0 -0.019874255035295916 1:-58.181818 2:-73.625 
-0.038566788973760931 -0.062653386362734736 -0.064221150252113168 1:-53.809633 2:-59.474061 
-0.45301815474712942 -0.2921105223305363 -0.62315111383383659 1:-55.037681 2:-67.590805 3:-80 
-0 -4 -0 2:-78 
-0.58834633682661486 -0.46707784104726541 -0.46501429875878764 1:-63.5 2:-73.150685 3:-86 
-0.53202732955981535 -0.34286723634995675 -0.41721837277526519 1:-56.869565 2:-68.971429 3:-80.273973 
-0.51586359682070193 -0.33193551993219628 -0.40773700981734623 1:-62.857143 2:-60.666667 3:-85.333333 
-0.50779156682844095 -0.32691296795621727 -0.40107074759906797 1:-62.666667 2:-60 
-0.61483417167724219 -0.39332055363124829 -0.48389960824897083 1:-50 2:-61 
-0.48719959962306675 -0.23827896741499313 -0.38439801723373862 1:-51.2 
-0 -0.052570110137682799 -0 1:-59.5 2:-74 
-0.49929683761850646 -0.2721293933270385 -0.39164059570482962 1:-64.444444 2:-71.6 3:-83.4 
-1.0141257069007248 -0.65121088712356245 -0.80040833371513886 1:-53.181818 2:-72.285714 3:-87.703704 
-1.0889077472074316 -0.69834158160345039 -0.85908477623521196 1:-62 3:-78 
-0.94781367082655688 -0.60778776072846563 -0.7479674425146644 1:-63 2:-62.235294 
-0.60783719737327524 -0.38310546934791917 -0.47993136432345618 1:-62.153846 2:-72 3:-82.4 
-0.79378228800669282 -0.50952155483327721 -0.62670307779751433 1:-48.857143 2:-62.842105 
-1.0103531706341857 -0.6464298600915529 -0.79672553341124253 1:-67.294118 2:-70.166667 
-0 -0.23670932007977577 -0 1:-58 2:-73.6 
-0.39286264772860596 -0 -0.29735428193911717 1:-65.5 2:-72.222222 
-0.19149359368343508 -0.12113102706598088 -0.17166435598701121 1:-58.038462 2:-68.060606 3:-81.104478 
-0.89010841787296713 -0.56943801756643719 -0.70123302765927698 1:-56.198795 2:-56.609137 
-0.55485260450417651 -0.35579669445347428 -0.43654008910263126 1:-54.491018 2:-63.84456 3:-85.483146 
-0.70303659081420111 -0.47062030969022822 -0.57962469357440294 2:-60 3:-84 
-0 -0 -0.038514947132692698 1:-60.923077 2:-72.956522 
-0.20607120979630614 -0.12239910154783919 -0.13886798128049688 1:-58 2:-70 
-0.93437090303432235 -0.59928126453658781 -0.73670363230450753 1:-59.333333 3:-82 
-0.19066153262697147 -0.11954870550599479 -0.13031778786822135 1:-56.126984 2:-65.259259 3:-80.666667 
-0.030140713323228562 -0 -0.01879228430365831 1:-59.033898 2:-71.536842 
-0.52298085205763611 -0.33574787382783877 -0.41297209636067322 1:-50.47619 2:-67.151515 
-0.00262307944273057 -0 -0 1:-56 2:-74 
-0.77732061555336607 -0.86023423783199604 -0.61439095860329795 1:-62.363636 2:-79.384615 
-0.29924356815024183 -0.18963772958388997 -0.22045076267532746 1:-56.36 2:-65.189873 3:-83.714286 
-0.52984144929623311 -0.40727765766127444 -0.50191153527037835 2:-66.540541 3:-83.430657 
-0.82567680817263711 -0.68325974710095261 -0.61529672841501526 1:-63.333333 2:-65.333333 3:-80 
-1.0183915629386062 -0.64124339503002858 -0.79142520288412432 2:-57.6 
-0.55476013013531067 -0.32887457379450613 -0.43863119617730123 1:-60.8125 2:-68.439024 
-0.40371865743634688 -0.25807407246884811 -0.31903227812880108 1:-58.787879 2:-66.681818 3:-86.230769 
-0.31890474193359375 -0.20428865261567397 -0.2510126862766191 1:-53.046512 2:-59.117117 3:-87 
-0.28866122371855724 -0.18546764089332929 -0.22843721480767948 1:-53.613445 2:-59.561905 3:-86 
-0.092193518428229482 -0.061107980613316286 -0.073952419073590403 1:-58 2:-61.904762 3:-84.666667 
-0.59239920663409484 -0.38083284478181656 -0.4659131196785789 1:-55.785714 2:-61.6 3:-80.952381 
-0.2478545401710941 -0.17577614999347149 -0.1944296784465156 1:-50 
-0.77442931975736606 -0.47859965122998976 -0.61154916929596004 1:-58 2:-71.478261 3:-82 
-0.012988601742103143 -0.010730432985098593 -0.011482834627305529 1:-55.692308 2:-60.666667 3:-84 
-0.46280158848109249 -0.29624958846896954 -0.3653150996547424 1:-63 2:-58.571429 
-0.69467960897115399 -0.54185746643613819 -0.54839805566656175 1:-57.111111 2:-74 3:-82 
-0.90942758183540728 -0.2492819489810523 -0.42501539432037616 1:-62.4 
-0.99504846578639661 -3.29867939789419 -0.78523531380000011 1:-62.956522 2:-78.068966 3:-82.5 
-0.15739748833884931 -0.10065031217303741 -0.1234762361584494 1:-61.080247 2:-58.476744 
-0.029286273510402406 -0 -0 1:-58 2:-72.608696 
-0.27499185528988856 -0.17864552378891602 -0.21590881989943225 1:-47.333333 
-0.95979081730697402 -1.9821173064236486 -4 2:-74.315789 
-0.34911458994145761 -0 -0.27706022370274253 1:-63.7 2:-76 
-0.68840902384997016 -0.39296853475679899 -0.5484360485749955 1:-63.621622 2:-65.043478 3:-84 
-0.39076288051271801 -0.25401194825264595 -0.30954362934216761 1:-59.674419 2:-63.918367 3:-82.138365 
-0 -0.055720650487946777 -0 1:-58.307692 2:-74 
-0.75248751702593342 -0.5005783707902085 -0.59418830851635507 1:-60.762887 2:-72.139535 3:-87.333333 
-0.20478213384434807 -0.20020594567764519 -0.070186876962473776 1:-60.5 
-0.41333671531614347 -0.27238742234175273 -0.32330135447137831 1:-57 2:-68 
-0.86935706672637114 -0.55729747774924343 -0.68630498702809584 1:-58 2:-61.5 3:-88 
-1.1209935336882961 -0.72212956387458316 -0.88423566020830535 1:-62 2:-83.5 
-1.0723765171782134 -0.68744514205667584 -0.84619874507520487 1:-66 2:-64 
-0.75646782398058943 -0.73729941821639167 -0.59683485927076541 1:-61.428571 2:-76.2 3:-80 
-0.01727406672121324 -0 -0.043949919528815544 1:-59.5 2:-70 
-0.23756950713439429 -0.1523747903540352 -0.1869059199048245 1:-51.333333 2:-63.188119 3:-83 
-0.64119489125586659 -0.41264448421507882 -0.50685497178626571 1:-60 2:-65.695652 
-0.77603907307482001 -0.9396242223089839 -0.61282591211398185 2:-74 3:-84 
-0.047373589085775845 -0.32314478637396987 -0.36114687548583907 1:-64 
-0.0077446584590767564 -0 -0 2:-66 
-0.078933064254494062 -0 -0.06138291633412344 1:-59.306859 2:-73.060606 3:-86 
-0.16404229365511921 -0.20595466417383582 -0.15577135394341141 2:-62.941176 
-0.17661144554488908 -0 -0.10728106633396871 1:-61.548387 2:-71.5 
-1.1186689595273955 -3.5233404812104885 -0.88259596880774183 1:-69.715909 2:-76.501961 3:-80.797508 
-0.10534996108843275 -0.16349305360267755 -0.10130341788499722 1:-59.085714 2:-69.717949 
-0.016208505812703868 -0 -0 1:-59.428571 2:-71 
-0.18165127586384736 -0.1120669244278726 -0.13920012519818481 1:-57.5 2:-64.8 3:-78 
-0.88255641490564141 -4 -4 2:-77.444444 
-0.18352532639290028 -0.088153988002007633 -0.14000578081847401 1:-58.5 2:-68.727273 
-0.073233201834959252 -0.041390144539877216 -0.054227005236308724 1:-59.578947 2:-67.02439 
-0.64267891787861664 -0.41180830470858409 -0.50667925300943828 1:-53.5 2:-61.2 3:-85 
-0.32592768639321645 -0.21503573602346315 -0.25985644104130123 1:-56.695652 2:-60.285714 
-0.18581049507795197 -0.22751228782751423 -0.24336438635108698 1:-55.134503 2:-58.625 
-0.040274795192140861 -0.0075831195976032058 -0.048436704055551991 1:-59.5 2:-70.5 
-1.1235754161207783 -0.72067091262454086 -0.88655633866814099 1:-53 2:-58 3:-72 
-0.021005659899571469 -0 -0.15484856876498837 1:-62 2:-72.925373 
-0.62513579159024901 -0.43340507335118339 -0.53528899484262815 2:-63.333333 3:-84.285714 
-0.59636835360344043 -0.38045080750945237 -0.46890826995274854 1:-51.03125 2:-58.808511 
-0.40813766874009627 -0.27078040851499002 -0.32964757444567822 1:-55.333333 2:-63.166667 
-1.1211601588074553 -0.71949919843450805 -0.88520249666155137 1:-54.307692 3:-78 
-0.21236710757811333 -0 -0 2:-70 
-0.0010972807898641614 -0 -0.0062966496125215904 1:-55.775 2:-66.635922 3:-83.861538 
-0.10859789990677536 -0.25438728418541234 -0.086817779387172098 1:-60.666667 2:-77 
-0.21805789777819162 -0.13674111377313314 -0.17570675187743059 1:-58.666667 2:-67.25 
-0.92668403451358927 -0.59364718218357337 -0.7320813439608409 1:-46 
-0 -0.14691967749663781 -0.20870182471233412 1:-64.666667 
-0.58992374186280971 -0.37860633232452223 -0.4660335608913343 1:-58 3:-84 
-0.0046477067493751727 -0 -0.15561438880340855 1:-60.307692 2:-72.491429 
-0.10501553135096083 -0.098595174768204966 -0.086287545360174994 1:-64.363636 2:-72.266667 3:-83.666667 
-0.99744952283110755 -4 -0.78676208460552632 1:-65.407407 2:-76.909091 3:-80.222222 
-0.81355794115117619 -0.84825138524889276 -0.64201419749470356 1:-60.333333 2:-74.117647 3:-79.333333 
-0.56907007636912066 -0.36598876564049115 -0.45013214988008243 1:-55.669725 2:-69.657143 
-0.20724495593236761 -0.1338518265021573 -0.16415157161979699 1:-52.44373 2:-57.901345 
-0.21654202395087335 -0.13776973907767881 -0.11482842320744796 1:-57 2:-68.089796 3:-79.525292 
-0.46631824151254997 -0.29744044536180753 -0.3670915066916412 1:-57 2:-75.5 
-0.38191862717861585 -0.24452312781686361 -0.30082770075310111 1:-59 2:-64 
-0.56754746216706775 -0.36442228964619849 -0.44895847158654051 1:-58.516129 2:-60.740741 3:-83.555556 
-0.58564163745390418 -0.10801609236215338 -0.46631279233196321 1:-62.171429 2:-67.5 3:-80 
-0.29343301933589044 -0.32761343048144498 -0.24165480808254861 1:-65.6 2:-72 
-4 -0.38801545839691098 -0.47011735531274079 1:-66 
