svm_type c_svc
kernel_type rbf
gamma 0.125
nr_class 4
total_sv 251
rho 10.409152271273967 8.5005905933410855 3.9105871793099447 0.18130825974047116 -9.456300210513648 1.0464731451194749
label 1 4 2 3
nr_sv 44 80 44 83
SV
0 0 512 1:-0.444444 2:-0.143749 3:-0.826087 
0 0 85.147493573388218 1:-0.466667 2:-0.111417 3:1 
512 0 512 1:1 2:-0.422614 3:-0.753623 
0 0 512 1:-0.422222 2:-0.0982446 3:1 
512 0 0 1:-0.688889 2:-0.472301 3:-0.826087 
0 512 512 1:1 2:-0.3337 3:-0.571429 
466.26707649763654 512 512 1:1 2:1 3:-0.695652 
0 495.4541988545019 0 1:-0.781197 2:-0.275907 3:-0.456522 
0 0 512 1:-0.493333 2:-0.261996 3:-0.891304 
0 0 512 1:-0.477778 2:-0.191995 3:-0.814229 
0 414.14966432628228 202.32379084292182 1:1 2:-0.328143 3:-0.565217 
464.03633080560604 0 0 1:-0.911111 2:1 3:-0.869565 
0 0 512 1:1 2:-0.378157 3:-0.775362 
512 0 0 1:-0.708333 2:-0.511527 3:-0.667391 
512 512 512 1:1 2:1 3:-0.782609 
512 0 0 1:-0.695726 2:-0.469293 3:-0.649059 
512 512 512 1:-0.466667 2:-0.867181 3:-0.608696 
512 470.6771415002616 512 1:-0.422222 2:-0.867181 3:-0.608696 
512 0 512 1:-0.511111 2:1 3:1 
172.53149717182808 494.05505822329013 0 1:-0.640741 2:1 3:-0.706522 
348.76748288039931 0 0 1:-0.60381 2:-0.392196 3:-0.463768 
512 0 0 1:-0.635556 2:-0.436293 3:-0.717391 
512 0 0 1:-0.762963 2:-0.485376 3:-0.728261 
486.58123215909001 0 0 1:-0.732616 2:-0.434776 3:-0.826087 
0 0 512 1:-0.422222 2:-0.388036 3:-0.73913 
512 0 0 1:-0.779211 2:-0.451193 3:-0.708075 
0 512 0 1:1 2:1 3:-0.478261 
0 0 188.50660300608294 1:-0.510383 2:-0.285576 3:-0.816157 
0 0 189.81935151768235 1:1 2:-0.127108 3:1 
193.47734073463991 0 0 1:-0.612698 2:-0.400385 3:-0.556522 
337.80270780669088 0 512 1:-0.6 2:1 3:1 
512 512 70.808243133540941 1:-0.752381 2:1 3:1 
0 209.75010631322471 0 1:-0.782716 2:-0.291022 3:1 
0 474.48582126498064 489.72070449248247 1:-0.52 2:1 3:-0.652174 
156.67111961083455 512 512 1:-0.688889 2:1 3:1 
0 0 512 1:-0.459259 2:-0.111417 3:1 
512 0 512 1:-0.481481 2:1 3:1 
0 0 512 1:1 2:-0.20033 3:-0.826087 
301.11760928389219 0 512 1:-0.466667 2:1 3:-0.826087 
0 3.7410294851051034 512 1:1 2:-0.20033 3:1 
512 0 191.96402759781401 1:-0.500654 2:-0.565863 3:-0.57971 
512 0 0 1:-0.688889 2:-0.500413 3:-0.721739 
512 0 0 1:-0.704889 2:-0.422614 3:-0.742754 
98.85109212163232 0 0 1:-0.707407 2:-0.35315 3:1 
-0 0 512 1:-0.455689 2:-0.694309 3:-0.826087 
-0 512 512 1:1 2:-0.689354 3:1 
-0 0 512 1:-0.456383 2:-0.712027 3:-0.836957 
-0 332.48792634160128 0 1:-0.688889 2:-0.778267 3:1 
-0 512 0 1:-0.688889 2:-0.872738 3:1 
-0 0 136.37116066779791 1:-0.644444 2:-0.754018 3:1 
-512 0 512 1:-0.441048 2:-0.493204 3:-0.763285 
-512 0 0 1:-0.612593 2:-0.597389 3:-0.753456 
-0 0 512 1:-0.483041 2:-0.611743 3:-0.705882 
-0 0 512 1:-0.6 2:-0.822724 3:1 
-0 512 0 1:-0.695906 2:-0.811126 3:-0.524457 
-0 0 512 1:-0.425466 2:-0.715145 3:-0.805901 
-0 0 192.33439785175963 1:-0.466667 2:-0.761596 3:-0.846154 
-0 0 512 1:-0.582684 2:-0.656011 3:1 
-0 0 91.581835154876501 1:-0.40339 2:-0.633082 3:-0.565217 
-20.430690056467711 512 512 1:1 2:-0.615259 3:1 
-0 0 512 1:-0.594444 2:-0.774847 3:1 
-0 0 512 1:-0.288889 2:-0.644897 3:1 
-0 0 512 1:-0.516809 2:-0.645426 3:-0.844394 
-0 512 512 1:1 2:-0.73381 3:1 
-0 512 512 1:1 2:-0.841777 3:1 
-0 512 0 1:-1 2:-0.862735 3:1 
-0 0 512 1:-0.511111 2:-0.778267 3:1 
-0 231.44847099073485 0 1:1 2:-0.848462 3:-0.786561 
-0 0 512 1:-0.521839 2:-0.670057 3:-0.860435 
-0 512 0 1:-0.693827 2:-0.873531 3:1 
-0 0 512 1:-0.543434 2:-0.631756 3:-0.869565 
-512 0 0 1:-0.721212 2:-0.583769 3:-0.618261 
-0 512 0 1:1 2:-0.778267 3:-0.521739 
-0 0 512 1:-0.315556 2:-0.772652 3:-0.913043 
-0 0 512 1:-0.62963 2:-0.778267 3:1 
-0 88.199753190787249 0 1:-0.660819 2:-0.60386 3:-0.505435 
-0 0 512 1:1 2:-0.708407 3:-0.826087 
-512 0 0 1:-0.817047 2:-0.582435 3:-0.603192 
-33.402653655395994 0 512 1:-0.381111 2:-0.595761 3:-0.663496 
-512 0 0 1:-0.718519 2:-0.562187 3:-0.656126 
-45.19398563162499 0 512 1:-0.4 2:-0.630078 3:1 
-512 512 512 1:1 2:1 3:-0.753623 
-446.40142887918438 0 512 1:1 2:-0.60044 3:-0.826087 
-0 0 512 1:-0.500285 2:-0.667125 3:-0.791304 
-512 0 0 1:-0.68 2:-0.411671 3:-0.723645 
-0 512 111.65342349928355 1:1 2:-0.867181 3:1 
-0 0 512 1:-0.429966 2:-0.778267 3:1 
-432.67473084957606 0 0 1:-0.604148 2:-0.604663 3:-0.753623 
-0 0 512 1:-0.516667 2:-0.661568 3:-0.8 
-0 0 512 1:-0.345257 2:-0.601149 3:-0.705961 
-512 512 0 1:-0.694771 2:-0.514211 3:-0.470266 
-0 512 512 1:1 2:-0.665644 3:-0.730435 
-512 512 359.55306936026102 1:-0.72963 2:1 3:1 
-0 0 512 1:-0.460131 2:-0.712042 3:-0.811594 
-0 365.88805766615195 0 1:-0.688889 2:-0.785677 3:-0.521739 
-0 0 512 1:-0.388889 2:-0.769376 3:-0.826087 
-0 0 512 1:-0.559596 2:-0.759214 3:1 
-0 0 512 1:-0.394761 2:-0.702178 3:-0.786957 
-512 114.57047198026518 512 1:-0.675556 2:1 3:1 
-0 0 512 1:-0.446712 2:-0.664706 3:-0.714716 
-0 0 512 1:-0.387654 2:-0.689354 3:-0.683794 
-0 512 512 1:1 2:-0.73381 3:1 
-512 0 0 1:-0.627778 2:-0.595501 3:-0.661198 
-0 0 512 1:-0.484444 2:-0.689354 3:1 
-512 0 512 1:-0.533333 2:-0.563393 3:-0.826087 
-512 512 512 1:1 2:1 3:-0.768116 
-512 0 512 1:-0.288889 2:1 3:1 
-0 512 512 1:1 2:-0.740161 3:-0.768116 
-0 0 512 1:-0.353686 2:-0.704862 3:-0.826087 
-0 512 0 1:-0.665079 2:-0.587739 3:-0.504348 
-512 0 0 1:-0.577778 2:-0.422614 3:-0.583851 
-512 0 0 1:-0.684444 2:-0.598814 3:-0.721316 
-0 0 512 1:-0.622222 2:-0.778267 3:1 
-0 512 512 1:1 2:-0.73381 3:1 
-512 0 0 1:-0.600966 2:-0.567709 3:-0.584348 
-0 0 512 1:-0.573333 2:-0.714758 3:1 
-512 0 512 1:-0.625121 2:1 3:1 
-0 512 512 1:1 2:-0.73381 3:1 
-0 0 512 1:-0.355556 2:-0.748629 3:-0.826087 
-0 0 512 1:-0.335213 2:-0.648716 3:-0.811594 
-512 501.58317886633165 0 1:-0.822222 2:1 3:-0.826087 
-0 0 512 1:-0.441026 2:-0.647499 3:-0.65942 
-0 0 512 1:-0.411043 2:-0.731185 3:-0.826087 
-512 0 77.393665229509296 1:-0.733333 2:1 3:-0.826087 
-0 -512 512 1:1 2:-0.644897 3:1 
-462.47290185520063 -49.220219446676253 98.699602058926388 1:-0.866667 2:1 3:1 
-0 -512 0 1:1 2:-0.889409 3:1 
-0 -512 512 1:1 2:-0.60044 3:1 
-0 -0 512 1:1 2:-0.778267 3:1 
-512 -504.82958473632596 512 1:1 2:1 3:-0.782609 
-168.85006866096398 -0 0 1:1 2:1 3:0.365217 
-0 -172.17570642724152 0 1:1 2:-0.911637 3:1 
-512 -512 512 1:1 2:1 3:-0.782609 
-0 -86.062400548117509 512 1:1 2:-0.644897 3:1 
-78.596430680790803 -99.58792945039238 0 1:-0.837037 2:-0.73381 3:-0.326265 
-0 -204.92388188317815 0 1:1 2:-0.878295 3:-0.540373 
-0 -512 512 1:1 2:-0.511527 3:1 
-196.35591189761038 -0 0 1:1 2:-0.497634 3:-0.271235 
-512 -512 512 1:-0.244444 2:-0.373923 3:-0.448161 
-0 -512 0 1:-0.911111 2:-0.866874 3:-0.407432 
-142.71506184837398 -0 0 1:-0.911111 2:-0.542647 3:1 
-512 -411.63891532944911 405.46376054084863 1:1 2:-0.644897 3:-0.565217 
-0 -0 0.0027044508849691632 1:1 2:-0.822724 3:1 
-0 -0 110.97003662389326 1:1 2:-0.822724 3:1 
-0 -0 512 1:1 2:-0.778267 3:1 
-0 -512 0 1:-0.866667 2:-0.867181 3:1 
-512 -512 0 1:-0.911111 2:-0.81161 3:-0.513043 
-0 -0 512 1:1 2:-0.689354 3:1 
-0 -512 0 1:1 2:-0.830133 3:-0.565217 
-0 -388.76942060024339 126.49722243866694 1:-0.866667 2:-0.911637 3:1 
-512 -32.099674503385835 174.35698502716994 1:-0.185185 2:1 3:-0.434783 
-0 -0 512 1:1 2:-0.704173 3:1 
-469.32529037908751 -0 109.0710436770763 1:1 2:1 3:-0.652174 
-0 -236.18942110293438 0 1:1 2:-0.911637 3:1 
-0 -0 512 1:1 2:-0.770858 3:1 
-0 -512 512 1:-0.8 2:-0.765565 3:1 
-0 -396.915965543342 0 1:-0.866667 2:-0.822724 3:1 
-512 -512 512 1:-0.18113 2:-0.526939 3:-0.722737 
-0 -0 512 1:1 2:-0.689354 3:1 
-0 -512 512 1:1 2:-0.60044 3:1 
-0 -0 512 1:1 2:-0.644897 3:1 
-502.20785709516099 -493.21989303323767 383.92246133862682 1:-0.866667 2:1 3:1 
-0 -317.03273554769191 0 1:1 2:-0.833838 3:1 
-0 -0 512 1:1 2:-0.73381 3:1 
-512 -512 160.50557222083907 1:-0.866667 2:1 3:-0.652174 
-0 -485.16142173627946 0 1:1 2:-0.867181 3:1 
-29.789497550458172 -512 512 1:1 2:-0.822724 3:-0.804348 
-0 -316.35068914737769 0 1:1 2:-0.911637 3:1 
-512 -0 -0 1:1 2:-0.37902 3:-0.770751 
-0 -512 -0 1:-0.515152 2:-0.84347 3:1 
-0 -0 -512 1:1 2:-0.576647 3:1 
-0 -512 -0 1:-0.424837 2:-0.61136 3:-0.869565 
-0 -512 -0 1:-0.494444 2:-0.689354 3:1 
-512 -0 -0 1:-0.418284 2:-0.389044 3:-0.826087 
-0 -0 -512 1:1 2:-0.622669 3:1 
-0 -512 -512 1:1 2:-0.73381 3:1 
-0 -512 -0 1:-0.432099 2:-0.591549 3:-0.813043 
-512 -0 -366.80551219345847 1:-0.377778 2:1 3:-0.695652 
-0 -512 -0 1:-0.381197 2:-0.60044 3:-0.791304 
-512 -0 -0 1:-0.407407 2:-0.452252 3:-0.73913 
-512 -0 -0 1:1 2:-0.280352 3:1 
-512 -0 -0 1:-0.4 2:-0.301946 3:1 
-0 -512 -0 1:-0.399034 2:-0.735343 3:-0.793478 
-0 -512 -512 1:1 2:-0.651917 3:1 
-0 -164.67975540857239 -0 1:-0.377778 2:-0.856066 3:1 
-0 -512 -0 1:-0.365079 2:-0.693799 3:-0.73913 
-0 -19.482599117522742 -0 1:1 2:-0.644897 3:-0.826087 
-259.68825189354777 -0 -0 1:-0.422222 2:1 3:1 
-512 -512 -0 1:-0.549242 2:-0.700512 3:-0.756468 
-188.35539211617402 -0 -0 1:1 2:-0.284304 3:1 
-0 -512 -512 1:1 2:-0.721461 3:1 
-0 -0 -512 1:-0.177778 2:-0.289244 3:-0.565217 
-512 -402.56935356580129 -0 1:-0.437037 2:1 3:1 
-0 -512 -0 1:-0.430303 2:-0.606368 3:-0.818841 
-0 -512 -0 1:-0.453498 2:-0.709561 3:-0.743961 
-0 -512 -0 1:-0.340741 2:-0.647512 3:-0.724638 
-512 -512 -0 1:-0.466667 2:1 3:1 
-0 -512 -0 1:-0.393494 2:-0.676573 3:-0.826087 
-512 -512 -512 1:1 2:1 3:-0.808696 
-512 -0 -0 1:-0.431111 2:-0.3337 3:-0.826087 
-0 -512 -0 1:-0.335673 2:-0.675913 3:-0.826087 
-0 -512 -496.63236476752024 1:1 2:-0.683212 3:-0.782609 
-0 -512 -512 1:-0.586473 2:-0.860714 3:1 
-0 -0 -512 1:1 2:-0.622669 3:1 
-0 -0.71417562388705225 -512 1:1 2:-0.644897 3:1 
-0 -512 -0 1:-0.511111 2:-0.73381 3:1 
-0 -512 -0 1:-0.507508 2:-0.625844 3:1 
-0 -512 -0 1:-0.566952 2:-0.876976 3:1 
-0 -512 -0 1:-0.484532 2:-0.641573 3:-0.845577 
-512 -512 -512 1:-0.911111 2:1 3:1 
-512 -439.76638506146315 -512 1:1 2:1 3:-0.826087 
-0 -512 -0 1:1 2:-0.616521 3:-0.782609 
-0 -512 -0 1:-0.40331 2:-0.725923 3:-0.861579 
-0 -512 -0 1:-0.437037 2:-0.619159 3:-0.847826 
-0 -512 -0 1:-0.405405 2:-0.630901 3:-0.847826 
-0 -0 -512 1:1 2:-0.60044 3:1 
-0 -512 -0 1:-0.473939 2:-0.653324 3:-0.779661 
-128.59865074950673 -512 -0 1:-0.521368 2:-0.598959 3:-0.869565 
-0 -135.06861909174273 -512 1:1 2:-0.644897 3:1 
-0 -512 -0 1:-0.496296 2:-0.644897 3:1 
-0 -512 -512 1:1 2:-0.644897 3:1 
-0 -510.77377121244592 -512 1:1 2:-0.644897 3:1 
-512 -53.654966547518342 -0 1:-0.433333 2:1 3:-0.73913 
-512 -0 -0 1:1 2:-0.373606 3:-0.73913 
-0 -512 -0 1:-0.334473 2:-0.707541 3:-0.773796 
-0 -512 -0 1:-0.428098 2:-0.645134 3:-0.782609 
-512 -512 -6.8596833986416268 1:-0.511111 2:1 3:1 
-0 -512 -512 1:1 2:-0.728502 3:1 
-0 -453.97967909137157 -0 1:1 2:-0.70629 3:-0.913043 
-0 -512 -0 1:-0.481481 2:-0.564067 3:-0.826087 
-512 -0 -0 1:-0.377778 2:-0.274425 3:1 
-76.100709365048473 -0 -0 1:-0.422222 2:1 3:-0.804348 
-0 -512 -512 1:1 2:-0.649131 3:-0.717391 
-512 -0 -152.04119082987245 1:-0.277778 2:-0.386096 3:-0.608696 
-0 -512 -260.40945028302383 1:-0.533011 2:-0.889903 3:-0.73913 
-0 -512 -0 1:-0.466667 2:-0.674535 3:1 
-0 -512 -0 1:-0.511111 2:-0.644897 3:1 
-0 -0 -85.174726237706182 1:1 2:-0.555984 3:1 
-0 -512 -0 1:-0.486869 2:-0.647367 3:1 
-0 -512 -0 1:-0.466667 2:-0.767153 3:-0.717391 
-512 -0 -0 1:1 2:-0.419776 3:-0.695652 
-19.988036428160481 -0 -0 1:1 2:1 3:-0.855072 
-512 -0 -0 1:-0.427778 2:-0.440946 3:-0.795987 
-512 -0 -0 1:1 2:-0.339628 3:-0.695652 
-0 -512 -512 1:1 2:-0.768875 3:1 
-0 -512 -0 1:-0.406667 2:-0.632195 3:-0.73913 
-0 -324.19824704316272 -0 1:-0.442222 2:-0.587739 3:-0.869565 
-0 -512 -201.56646066670962 1:-0.568254 2:-0.884279 3:1 
-0 -512 -0 1:-0.345679 2:-0.647861 3:-0.73913 
-0 -512 -0 1:-0.543961 2:-0.863139 3:1 
-233.5591736114755 -0 -0 1:-0.365844 2:-0.429006 3:-0.728518 
